digraph Tree {
node [shape=box, style="filled, rounded", color="black", fontname=helvetica] ;
edge [fontname=helvetica] ;
0 [label="1 <= 9357.0\nmse = 4990.43\nsamples = 921\nvalue = 29.99", fillcolor="#fdf7f2"] ;
1 [label="1 <= 8733.0\nmse = 887.22\nsamples = 819\nvalue = 10.04", fillcolor="#fefcfb"] ;
0 -> 1 [labeldistance=2.5, labelangle=45, headlabel="True"] ;
2 [label="1 <= 8508.0\nmse = 169.43\nsamples = 707\nvalue = 2.83", fillcolor="#fffefe"] ;
1 -> 2 ;
3 [label="1 <= 8250.0\nmse = 23.12\nsamples = 648\nvalue = 0.78", fillcolor="#ffffff"] ;
2 -> 3 ;
4 [label="4 <= 1618.0\nmse = 1.37\nsamples = 578\nvalue = 0.09", fillcolor="#ffffff"] ;
3 -> 4 ;
5 [label="1 <= 8070.0\nmse = 38.78\nsamples = 16\nvalue = 2.19", fillcolor="#fffefe"] ;
4 -> 5 ;
6 [label="mse = 0.0\nsamples = 14\nvalue = 0.0", fillcolor="#ffffff"] ;
5 -> 6 ;
7 [label="8 <= 39.5\nmse = 42.25\nsamples = 2\nvalue = 17.5", fillcolor="#fefaf7"] ;
5 -> 7 ;
8 [label="mse = 0.0\nsamples = 1\nvalue = 24.0", fillcolor="#fef8f5"] ;
7 -> 8 ;
9 [label="mse = 0.0\nsamples = 1\nvalue = 11.0", fillcolor="#fefcfa"] ;
7 -> 9 ;
10 [label="1 <= 8151.0\nmse = 0.18\nsamples = 562\nvalue = 0.03", fillcolor="#ffffff"] ;
4 -> 10 ;
11 [label="mse = 0.0\nsamples = 532\nvalue = 0.0", fillcolor="#ffffff"] ;
10 -> 11 ;
12 [label="4 <= 1634.0\nmse = 3.12\nsamples = 30\nvalue = 0.5", fillcolor="#ffffff"] ;
10 -> 12 ;
13 [label="mse = 6.25\nsamples = 2\nvalue = 6.5", fillcolor="#fffdfc"] ;
12 -> 13 ;
14 [label="mse = 0.14\nsamples = 28\nvalue = 0.07", fillcolor="#ffffff"] ;
12 -> 14 ;
15 [label="4 <= 1655.5\nmse = 165.79\nsamples = 70\nvalue = 6.51", fillcolor="#fffdfc"] ;
3 -> 15 ;
16 [label="1 <= 8439.0\nmse = 47.57\nsamples = 15\nvalue = 30.4", fillcolor="#fdf7f2"] ;
15 -> 16 ;
17 [label="1 <= 8379.0\nmse = 24.49\nsamples = 14\nvalue = 29.07", fillcolor="#fdf7f3"] ;
16 -> 17 ;
18 [label="mse = 20.49\nsamples = 10\nvalue = 27.1", fillcolor="#fdf8f3"] ;
17 -> 18 ;
19 [label="mse = 0.5\nsamples = 4\nvalue = 34.0", fillcolor="#fdf6f0"] ;
17 -> 19 ;
20 [label="mse = 0.0\nsamples = 1\nvalue = 49.0", fillcolor="#fcf2ea"] ;
16 -> 20 ;
21 [label="mse = 0.0\nsamples = 55\nvalue = 0.0", fillcolor="#ffffff"] ;
15 -> 21 ;
22 [label="4 <= 1677.0\nmse = 1224.35\nsamples = 59\nvalue = 25.32", fillcolor="#fef8f4"] ;
2 -> 22 ;
23 [label="0 <= 55.0\nmse = 173.3\nsamples = 19\nvalue = 74.47", fillcolor="#fbebdf"] ;
22 -> 23 ;
24 [label="8 <= 32.5\nmse = 84.22\nsamples = 6\nvalue = 61.33", fillcolor="#fceee5"] ;
23 -> 24 ;
25 [label="0 <= 51.5\nmse = 17.44\nsamples = 5\nvalue = 57.6", fillcolor="#fcefe6"] ;
24 -> 25 ;
26 [label="mse = 6.89\nsamples = 3\nvalue = 54.67", fillcolor="#fcf0e8"] ;
25 -> 26 ;
27 [label="mse = 1.0\nsamples = 2\nvalue = 62.0", fillcolor="#fceee4"] ;
25 -> 27 ;
28 [label="mse = 0.0\nsamples = 1\nvalue = 80.0", fillcolor="#fae9dd"] ;
24 -> 28 ;
29 [label="7 <= 4.5\nmse = 97.94\nsamples = 13\nvalue = 80.54", fillcolor="#fae9dc"] ;
23 -> 29 ;
30 [label="1 <= 8631.0\nmse = 76.81\nsamples = 10\nvalue = 83.7", fillcolor="#fae8db"] ;
29 -> 30 ;
31 [label="mse = 68.98\nsamples = 8\nvalue = 81.38", fillcolor="#fae9dc"] ;
30 -> 31 ;
32 [label="mse = 0.0\nsamples = 2\nvalue = 93.0", fillcolor="#fae6d7"] ;
30 -> 32 ;
33 [label="4 <= 1633.5\nmse = 24.0\nsamples = 3\nvalue = 70.0", fillcolor="#fbece1"] ;
29 -> 33 ;
34 [label="mse = 0.0\nsamples = 1\nvalue = 76.0", fillcolor="#fbeade"] ;
33 -> 34 ;
35 [label="mse = 9.0\nsamples = 2\nvalue = 67.0", fillcolor="#fbede2"] ;
33 -> 35 ;
36 [label="4 <= 1722.0\nmse = 30.97\nsamples = 40\nvalue = 1.98", fillcolor="#fffefe"] ;
22 -> 36 ;
37 [label="6 <= 9.5\nmse = 59.14\nsamples = 6\nvalue = 13.17", fillcolor="#fefbf9"] ;
36 -> 37 ;
38 [label="0 <= 84.0\nmse = 14.19\nsamples = 4\nvalue = 8.25", fillcolor="#fffdfb"] ;
37 -> 38 ;
39 [label="mse = 0.0\nsamples = 1\nvalue = 14.0", fillcolor="#fefbf9"] ;
38 -> 39 ;
40 [label="mse = 4.22\nsamples = 3\nvalue = 6.33", fillcolor="#fffdfc"] ;
38 -> 40 ;
41 [label="0 <= 89.5\nmse = 4.0\nsamples = 2\nvalue = 23.0", fillcolor="#fef9f5"] ;
37 -> 41 ;
42 [label="mse = 0.0\nsamples = 1\nvalue = 21.0", fillcolor="#fef9f6"] ;
41 -> 42 ;
43 [label="mse = 0.0\nsamples = 1\nvalue = 25.0", fillcolor="#fef8f4"] ;
41 -> 43 ;
44 [label="mse = 0.0\nsamples = 34\nvalue = 0.0", fillcolor="#ffffff"] ;
36 -> 44 ;
45 [label="4 <= 1755.5\nmse = 3019.39\nsamples = 112\nvalue = 55.54", fillcolor="#fcf0e7"] ;
1 -> 45 ;
46 [label="4 <= 1657.5\nmse = 2458.17\nsamples = 61\nvalue = 91.21", fillcolor="#fae6d8"] ;
45 -> 46 ;
47 [label="1 <= 9138.0\nmse = 903.72\nsamples = 15\nvalue = 152.47", fillcolor="#f6d5be"] ;
46 -> 47 ;
48 [label="1 <= 8904.0\nmse = 289.39\nsamples = 12\nvalue = 139.67", fillcolor="#f7d9c3"] ;
47 -> 48 ;
49 [label="1 <= 8772.0\nmse = 77.81\nsamples = 6\nvalue = 125.17", fillcolor="#f8ddc9"] ;
48 -> 49 ;
50 [label="mse = 9.0\nsamples = 2\nvalue = 114.0", fillcolor="#f9e0ce"] ;
49 -> 50 ;
51 [label="mse = 18.69\nsamples = 4\nvalue = 130.75", fillcolor="#f8dbc7"] ;
49 -> 51 ;
52 [label="1 <= 9018.0\nmse = 80.47\nsamples = 6\nvalue = 154.17", fillcolor="#f6d5bd"] ;
48 -> 52 ;
53 [label="mse = 18.25\nsamples = 4\nvalue = 148.5", fillcolor="#f7d6bf"] ;
52 -> 53 ;
54 [label="mse = 12.25\nsamples = 2\nvalue = 165.5", fillcolor="#f6d2b8"] ;
52 -> 54 ;
55 [label="8 <= 33.0\nmse = 84.22\nsamples = 3\nvalue = 203.67", fillcolor="#f4c7a8"] ;
47 -> 55 ;
56 [label="6 <= 7.5\nmse = 12.25\nsamples = 2\nvalue = 197.5", fillcolor="#f4c9aa"] ;
55 -> 56 ;
57 [label="mse = 0.0\nsamples = 1\nvalue = 194.0", fillcolor="#f4caac"] ;
56 -> 57 ;
58 [label="mse = 0.0\nsamples = 1\nvalue = 201.0", fillcolor="#f4c8a9"] ;
56 -> 58 ;
59 [label="mse = 0.0\nsamples = 1\nvalue = 216.0", fillcolor="#f3c4a2"] ;
55 -> 59 ;
60 [label="1 <= 9051.0\nmse = 1342.62\nsamples = 46\nvalue = 71.24", fillcolor="#fbece0"] ;
46 -> 60 ;
61 [label="1 <= 8907.0\nmse = 519.57\nsamples = 25\nvalue = 43.16", fillcolor="#fdf3ec"] ;
60 -> 61 ;
62 [label="4 <= 1729.5\nmse = 394.82\nsamples = 17\nvalue = 32.65", fillcolor="#fdf6f1"] ;
61 -> 62 ;
63 [label="mse = 316.69\nsamples = 4\nvalue = 60.75", fillcolor="#fceee5"] ;
62 -> 63 ;
64 [label="mse = 101.08\nsamples = 13\nvalue = 24.0", fillcolor="#fef8f5"] ;
62 -> 64 ;
65 [label="0 <= 69.0\nmse = 50.75\nsamples = 8\nvalue = 65.5", fillcolor="#fbede3"] ;
61 -> 65 ;
66 [label="mse = 36.19\nsamples = 4\nvalue = 60.75", fillcolor="#fceee5"] ;
65 -> 66 ;
67 [label="mse = 20.19\nsamples = 4\nvalue = 70.25", fillcolor="#fbece1"] ;
65 -> 67 ;
68 [label="1 <= 9198.0\nmse = 266.41\nsamples = 21\nvalue = 104.67", fillcolor="#f9e2d2"] ;
60 -> 68 ;
69 [label="4 <= 1739.0\nmse = 172.32\nsamples = 9\nvalue = 91.89", fillcolor="#fae6d8"] ;
68 -> 69 ;
70 [label="mse = 38.56\nsamples = 5\nvalue = 100.8", fillcolor="#f9e3d4"] ;
69 -> 70 ;
71 [label="mse = 116.19\nsamples = 4\nvalue = 80.75", fillcolor="#fae9dc"] ;
69 -> 71 ;
72 [label="1 <= 9330.0\nmse = 122.69\nsamples = 12\nvalue = 114.25", fillcolor="#f9e0ce"] ;
68 -> 72 ;
73 [label="mse = 55.84\nsamples = 10\nvalue = 110.4", fillcolor="#f9e1d0"] ;
72 -> 73 ;
74 [label="mse = 12.25\nsamples = 2\nvalue = 133.5", fillcolor="#f7dbc6"] ;
72 -> 74 ;
75 [label="1 <= 9219.0\nmse = 348.89\nsamples = 51\nvalue = 12.88", fillcolor="#fefbf9"] ;
45 -> 75 ;
76 [label="4 <= 1807.5\nmse = 77.15\nsamples = 38\nvalue = 3.71", fillcolor="#fffefd"] ;
75 -> 76 ;
77 [label="1 <= 8907.0\nmse = 185.2\nsamples = 5\nvalue = 20.0", fillcolor="#fefaf6"] ;
76 -> 77 ;
78 [label="2 <= 1850.0\nmse = 42.25\nsamples = 2\nvalue = 6.5", fillcolor="#fffdfc"] ;
77 -> 78 ;
79 [label="mse = 0.0\nsamples = 1\nvalue = 13.0", fillcolor="#fefbf9"] ;
78 -> 79 ;
80 [label="mse = 0.0\nsamples = 1\nvalue = 0.0", fillcolor="#ffffff"] ;
78 -> 80 ;
81 [label="1 <= 9114.0\nmse = 78.0\nsamples = 3\nvalue = 29.0", fillcolor="#fdf7f3"] ;
77 -> 81 ;
82 [label="mse = 9.0\nsamples = 2\nvalue = 35.0", fillcolor="#fdf5f0"] ;
81 -> 82 ;
83 [label="mse = 0.0\nsamples = 1\nvalue = 17.0", fillcolor="#fefaf8"] ;
81 -> 83 ;
84 [label="1 <= 9126.0\nmse = 14.49\nsamples = 33\nvalue = 1.24", fillcolor="#fffffe"] ;
76 -> 84 ;
85 [label="0 <= 87.0\nmse = 0.65\nsamples = 29\nvalue = 0.21", fillcolor="#ffffff"] ;
84 -> 85 ;
86 [label="mse = 0.0\nsamples = 23\nvalue = 0.0", fillcolor="#ffffff"] ;
85 -> 86 ;
87 [label="mse = 2.33\nsamples = 6\nvalue = 1.0", fillcolor="#ffffff"] ;
85 -> 87 ;
88 [label="4 <= 1830.5\nmse = 50.69\nsamples = 4\nvalue = 8.75", fillcolor="#fffdfb"] ;
84 -> 88 ;
89 [label="mse = 6.25\nsamples = 2\nvalue = 15.5", fillcolor="#fefbf8"] ;
88 -> 89 ;
90 [label="mse = 4.0\nsamples = 2\nvalue = 2.0", fillcolor="#fffefe"] ;
88 -> 90 ;
91 [label="0 <= 77.0\nmse = 178.52\nsamples = 13\nvalue = 39.69", fillcolor="#fdf4ee"] ;
75 -> 91 ;
92 [label="7 <= 3.0\nmse = 59.25\nsamples = 4\nvalue = 24.5", fillcolor="#fef8f4"] ;
91 -> 92 ;
93 [label="mse = 0.0\nsamples = 1\nvalue = 36.0", fillcolor="#fdf5f0"] ;
92 -> 93 ;
94 [label="8 <= 22.0\nmse = 20.22\nsamples = 3\nvalue = 20.67", fillcolor="#fef9f6"] ;
92 -> 94 ;
95 [label="mse = 0.0\nsamples = 1\nvalue = 15.0", fillcolor="#fefbf9"] ;
94 -> 95 ;
96 [label="mse = 6.25\nsamples = 2\nvalue = 23.5", fillcolor="#fef9f5"] ;
94 -> 96 ;
97 [label="0 <= 82.0\nmse = 83.36\nsamples = 9\nvalue = 46.44", fillcolor="#fcf2eb"] ;
91 -> 97 ;
98 [label="1 <= 9294.0\nmse = 65.5\nsamples = 4\nvalue = 39.0", fillcolor="#fdf4ee"] ;
97 -> 98 ;
99 [label="mse = 6.25\nsamples = 2\nvalue = 31.5", fillcolor="#fdf6f1"] ;
98 -> 99 ;
100 [label="mse = 12.25\nsamples = 2\nvalue = 46.5", fillcolor="#fcf2eb"] ;
98 -> 100 ;
101 [label="7 <= 3.5\nmse = 17.84\nsamples = 5\nvalue = 52.4", fillcolor="#fcf1e8"] ;
97 -> 101 ;
102 [label="mse = 8.69\nsamples = 4\nvalue = 50.75", fillcolor="#fcf1e9"] ;
101 -> 102 ;
103 [label="mse = 0.0\nsamples = 1\nvalue = 59.0", fillcolor="#fcefe6"] ;
101 -> 103 ;
104 [label="1 <= 10161.0\nmse = 9061.79\nsamples = 102\nvalue = 190.24", fillcolor="#f4cbad"] ;
0 -> 104 [labeldistance=2.5, labelangle=-45, headlabel="False"] ;
105 [label="2 <= 1850.0\nmse = 4825.62\nsamples = 82\nvalue = 157.9", fillcolor="#f6d4bb"] ;
104 -> 105 ;
106 [label="2 <= 1750.0\nmse = 2466.83\nsamples = 34\nvalue = 215.56", fillcolor="#f3c4a2"] ;
105 -> 106 ;
107 [label="1 <= 9558.0\nmse = 720.44\nsamples = 9\nvalue = 265.67", fillcolor="#f0b68d"] ;
106 -> 107 ;
108 [label="1 <= 9420.0\nmse = 133.0\nsamples = 6\nvalue = 249.0", fillcolor="#f1bb94"] ;
107 -> 108 ;
109 [label="0 <= 57.0\nmse = 0.25\nsamples = 2\nvalue = 235.5", fillcolor="#f2bf9a"] ;
108 -> 109 ;
110 [label="mse = 0.0\nsamples = 1\nvalue = 236.0", fillcolor="#f2be9a"] ;
109 -> 110 ;
111 [label="mse = 0.0\nsamples = 1\nvalue = 235.0", fillcolor="#f2bf9a"] ;
109 -> 111 ;
112 [label="0 <= 68.5\nmse = 62.69\nsamples = 4\nvalue = 255.75", fillcolor="#f1b991"] ;
108 -> 112 ;
113 [label="mse = 5.56\nsamples = 3\nvalue = 251.33", fillcolor="#f1ba93"] ;
112 -> 113 ;
114 [label="mse = 0.0\nsamples = 1\nvalue = 269.0", fillcolor="#f0b58b"] ;
112 -> 114 ;
115 [label="7 <= 2.5\nmse = 228.67\nsamples = 3\nvalue = 299.0", fillcolor="#eead7f"] ;
107 -> 115 ;
116 [label="1 <= 9651.0\nmse = 12.25\nsamples = 2\nvalue = 288.5", fillcolor="#efb083"] ;
115 -> 116 ;
117 [label="mse = 0.0\nsamples = 1\nvalue = 285.0", fillcolor="#efb185"] ;
116 -> 117 ;
118 [label="mse = 0.0\nsamples = 1\nvalue = 292.0", fillcolor="#efaf82"] ;
116 -> 118 ;
119 [label="mse = 0.0\nsamples = 1\nvalue = 320.0", fillcolor="#eda876"] ;
115 -> 119 ;
120 [label="1 <= 9807.0\nmse = 1866.25\nsamples = 25\nvalue = 197.52", fillcolor="#f4c9aa"] ;
106 -> 120 ;
121 [label="1 <= 9540.0\nmse = 610.71\nsamples = 17\nvalue = 172.59", fillcolor="#f5d0b5"] ;
120 -> 121 ;
122 [label="1 <= 9456.0\nmse = 110.0\nsamples = 8\nvalue = 150.0", fillcolor="#f7d6bf"] ;
121 -> 122 ;
123 [label="mse = 84.56\nsamples = 6\nvalue = 146.33", fillcolor="#f7d7c0"] ;
122 -> 123 ;
124 [label="mse = 25.0\nsamples = 2\nvalue = 161.0", fillcolor="#f6d3ba"] ;
122 -> 124 ;
125 [label="8 <= 36.0\nmse = 199.11\nsamples = 9\nvalue = 192.67", fillcolor="#f4caac"] ;
121 -> 125 ;
126 [label="mse = 87.92\nsamples = 7\nvalue = 186.71", fillcolor="#f4ccaf"] ;
125 -> 126 ;
127 [label="mse = 30.25\nsamples = 2\nvalue = 213.5", fillcolor="#f3c5a3"] ;
125 -> 127 ;
128 [label="1 <= 9990.0\nmse = 406.5\nsamples = 8\nvalue = 250.5", fillcolor="#f1bb93"] ;
120 -> 128 ;
129 [label="8 <= 32.0\nmse = 140.96\nsamples = 5\nvalue = 236.8", fillcolor="#f2be99"] ;
128 -> 129 ;
130 [label="mse = 8.67\nsamples = 3\nvalue = 228.0", fillcolor="#f2c19d"] ;
129 -> 130 ;
131 [label="mse = 49.0\nsamples = 2\nvalue = 250.0", fillcolor="#f1bb94"] ;
129 -> 131 ;
132 [label="4 <= 1742.0\nmse = 14.89\nsamples = 3\nvalue = 273.33", fillcolor="#f0b48a"] ;
128 -> 132 ;
133 [label="mse = 1.0\nsamples = 2\nvalue = 276.0", fillcolor="#efb488"] ;
132 -> 133 ;
134 [label="mse = 0.0\nsamples = 1\nvalue = 268.0", fillcolor="#f0b68c"] ;
132 -> 134 ;
135 [label="1 <= 9741.0\nmse = 2473.85\nsamples = 48\nvalue = 117.06", fillcolor="#f8dfcd"] ;
105 -> 135 ;
136 [label="1 <= 9546.0\nmse = 439.1\nsamples = 28\nvalue = 79.61", fillcolor="#fbe9dd"] ;
135 -> 136 ;
137 [label="0 <= 82.5\nmse = 246.48\nsamples = 17\nvalue = 66.59", fillcolor="#fbede2"] ;
136 -> 137 ;
138 [label="1 <= 9435.0\nmse = 82.38\nsamples = 13\nvalue = 59.08", fillcolor="#fcefe6"] ;
137 -> 138 ;
139 [label="mse = 54.5\nsamples = 4\nvalue = 48.0", fillcolor="#fcf2ea"] ;
138 -> 139 ;
140 [label="mse = 16.0\nsamples = 9\nvalue = 64.0", fillcolor="#fbeee4"] ;
138 -> 140 ;
141 [label="4 <= 1799.0\nmse = 0.5\nsamples = 4\nvalue = 91.0", fillcolor="#fae6d8"] ;
137 -> 141 ;
142 [label="mse = 0.0\nsamples = 1\nvalue = 90.0", fillcolor="#fae6d8"] ;
141 -> 142 ;
143 [label="mse = 0.22\nsamples = 3\nvalue = 91.33", fillcolor="#fae6d8"] ;
141 -> 143 ;
144 [label="0 <= 61.5\nmse = 70.02\nsamples = 11\nvalue = 99.73", fillcolor="#f9e4d4"] ;
136 -> 144 ;
145 [label="7 <= 1.5\nmse = 0.25\nsamples = 2\nvalue = 86.5", fillcolor="#fae7da"] ;
144 -> 145 ;
146 [label="mse = 0.0\nsamples = 1\nvalue = 87.0", fillcolor="#fae7da"] ;
145 -> 146 ;
147 [label="mse = 0.0\nsamples = 1\nvalue = 86.0", fillcolor="#fae7da"] ;
145 -> 147 ;
148 [label="1 <= 9594.0\nmse = 38.0\nsamples = 9\nvalue = 102.67", fillcolor="#f9e3d3"] ;
144 -> 148 ;
149 [label="mse = 6.22\nsamples = 3\nvalue = 96.67", fillcolor="#fae5d5"] ;
148 -> 149 ;
150 [label="mse = 26.89\nsamples = 6\nvalue = 105.67", fillcolor="#f9e2d2"] ;
148 -> 150 ;
151 [label="1 <= 9945.0\nmse = 608.75\nsamples = 20\nvalue = 169.5", fillcolor="#f5d1b6"] ;
135 -> 151 ;
152 [label="1 <= 9858.0\nmse = 67.55\nsamples = 7\nvalue = 141.86", fillcolor="#f7d8c2"] ;
151 -> 152 ;
153 [label="8 <= 32.5\nmse = 18.64\nsamples = 5\nvalue = 137.4", fillcolor="#f7d9c4"] ;
152 -> 153 ;
154 [label="mse = 6.89\nsamples = 3\nvalue = 134.33", fillcolor="#f7dac5"] ;
153 -> 154 ;
155 [label="mse = 1.0\nsamples = 2\nvalue = 142.0", fillcolor="#f7d8c2"] ;
153 -> 155 ;
156 [label="4 <= 1830.0\nmse = 16.0\nsamples = 2\nvalue = 153.0", fillcolor="#f6d5bd"] ;
152 -> 156 ;
157 [label="mse = 0.0\nsamples = 1\nvalue = 149.0", fillcolor="#f7d6bf"] ;
156 -> 157 ;
158 [label="mse = 0.0\nsamples = 1\nvalue = 157.0", fillcolor="#f6d4bc"] ;
156 -> 158 ;
159 [label="1 <= 10101.0\nmse = 267.16\nsamples = 13\nvalue = 184.38", fillcolor="#f5cdb0"] ;
151 -> 159 ;
160 [label="4 <= 1828.0\nmse = 73.05\nsamples = 10\nvalue = 177.5", fillcolor="#f5ceb3"] ;
159 -> 160 ;
161 [label="mse = 31.76\nsamples = 5\nvalue = 184.2", fillcolor="#f5cdb0"] ;
160 -> 161 ;
162 [label="mse = 24.56\nsamples = 5\nvalue = 170.8", fillcolor="#f5d0b6"] ;
160 -> 162 ;
163 [label="6 <= 7.0\nmse = 229.56\nsamples = 3\nvalue = 207.33", fillcolor="#f3c6a6"] ;
159 -> 163 ;
164 [label="mse = 64.0\nsamples = 2\nvalue = 217.0", fillcolor="#f3c4a2"] ;
163 -> 164 ;
165 [label="mse = 0.0\nsamples = 1\nvalue = 188.0", fillcolor="#f4ccae"] ;
163 -> 165 ;
166 [label="4 <= 1748.5\nmse = 4570.46\nsamples = 20\nvalue = 322.8", fillcolor="#eda774"] ;
104 -> 166 ;
167 [label="0 <= 58.5\nmse = 3013.84\nsamples = 5\nvalue = 395.6", fillcolor="#e99355"] ;
166 -> 167 ;
168 [label="7 <= 0.5\nmse = 304.67\nsamples = 3\nvalue = 437.0", fillcolor="#e68843"] ;
167 -> 168 ;
169 [label="mse = 0.0\nsamples = 1\nvalue = 461.0", fillcolor="#e58139"] ;
168 -> 169 ;
170 [label="2 <= 1750.0\nmse = 25.0\nsamples = 2\nvalue = 425.0", fillcolor="#e78b48"] ;
168 -> 170 ;
171 [label="mse = 0.0\nsamples = 1\nvalue = 430.0", fillcolor="#e78946"] ;
170 -> 171 ;
172 [label="mse = 0.0\nsamples = 1\nvalue = 420.0", fillcolor="#e78c4b"] ;
170 -> 172 ;
173 [label="0 <= 63.5\nmse = 650.25\nsamples = 2\nvalue = 333.5", fillcolor="#eca470"] ;
167 -> 173 ;
174 [label="mse = 0.0\nsamples = 1\nvalue = 359.0", fillcolor="#eb9d65"] ;
173 -> 174 ;
175 [label="mse = 0.0\nsamples = 1\nvalue = 308.0", fillcolor="#eeab7b"] ;
173 -> 175 ;
176 [label="1 <= 11061.0\nmse = 2733.85\nsamples = 15\nvalue = 298.53", fillcolor="#eead7f"] ;
166 -> 176 ;
177 [label="1 <= 10389.0\nmse = 1079.39\nsamples = 14\nvalue = 287.43", fillcolor="#efb084"] ;
176 -> 177 ;
178 [label="0 <= 59.5\nmse = 426.5\nsamples = 4\nvalue = 249.0", fillcolor="#f1bb94"] ;
177 -> 178 ;
179 [label="mse = 0.0\nsamples = 1\nvalue = 283.0", fillcolor="#efb285"] ;
178 -> 179 ;
180 [label="1 <= 10350.0\nmse = 54.89\nsamples = 3\nvalue = 237.67", fillcolor="#f2be99"] ;
178 -> 180 ;
181 [label="mse = 2.25\nsamples = 2\nvalue = 232.5", fillcolor="#f2bf9b"] ;
180 -> 181 ;
182 [label="mse = 0.0\nsamples = 1\nvalue = 248.0", fillcolor="#f1bb94"] ;
180 -> 182 ;
183 [label="1 <= 10605.0\nmse = 513.56\nsamples = 10\nvalue = 302.8", fillcolor="#eeac7d"] ;
177 -> 183 ;
184 [label="5 <= 2017.5\nmse = 518.8\nsamples = 5\nvalue = 288.0", fillcolor="#efb083"] ;
183 -> 184 ;
185 [label="mse = 0.0\nsamples = 1\nvalue = 329.0", fillcolor="#eca572"] ;
184 -> 185 ;
186 [label="mse = 123.19\nsamples = 4\nvalue = 277.75", fillcolor="#efb388"] ;
184 -> 186 ;
187 [label="1 <= 10704.0\nmse = 70.24\nsamples = 5\nvalue = 317.6", fillcolor="#eda877"] ;
183 -> 187 ;
188 [label="mse = 13.56\nsamples = 3\nvalue = 312.67", fillcolor="#edaa79"] ;
187 -> 188 ;
189 [label="mse = 64.0\nsamples = 2\nvalue = 325.0", fillcolor="#eda673"] ;
187 -> 189 ;
190 [label="mse = 0.0\nsamples = 1\nvalue = 454.0", fillcolor="#e5833c"] ;
176 -> 190 ;
}