digraph Tree {
node [shape=box, style="filled, rounded", color="black", fontname=helvetica] ;
edge [fontname=helvetica] ;
0 [label="4 <= 107.5\nmse = 4990.43\nsamples = 921\nvalue = 29.99", fillcolor="#fdf7f2"] ;
1 [label="4 <= 37.0\nmse = 508.65\nsamples = 820\nvalue = 8.25", fillcolor="#fffdfb"] ;
0 -> 1 [labeldistance=2.5, labelangle=45, headlabel="True"] ;
2 [label="4 <= 12.0\nmse = 35.85\nsamples = 742\nvalue = 1.44", fillcolor="#fffffe"] ;
1 -> 2 ;
3 [label="4 <= 3.0\nmse = 0.56\nsamples = 702\nvalue = 0.08", fillcolor="#ffffff"] ;
2 -> 3 ;
4 [label="4 <= 1.0\nmse = 0.02\nsamples = 694\nvalue = 0.01", fillcolor="#ffffff"] ;
3 -> 4 ;
5 [label="mse = 0.0\nsamples = 691\nvalue = 0.0", fillcolor="#ffffff"] ;
4 -> 5 ;
6 [label="mse = 0.0\nsamples = 3\nvalue = 2.0", fillcolor="#fffefe"] ;
4 -> 6 ;
7 [label="4 <= 7.5\nmse = 7.23\nsamples = 8\nvalue = 6.38", fillcolor="#fffdfc"] ;
3 -> 7 ;
8 [label="4 <= 5.0\nmse = 0.64\nsamples = 5\nvalue = 4.4", fillcolor="#fffefd"] ;
7 -> 8 ;
9 [label="mse = 0.0\nsamples = 4\nvalue = 4.0", fillcolor="#fffefd"] ;
8 -> 9 ;
10 [label="mse = 0.0\nsamples = 1\nvalue = 6.0", fillcolor="#fffdfc"] ;
8 -> 10 ;
11 [label="5 <= 1624.5\nmse = 0.89\nsamples = 3\nvalue = 9.67", fillcolor="#fefcfb"] ;
7 -> 11 ;
12 [label="mse = 0.0\nsamples = 1\nvalue = 11.0", fillcolor="#fefcfa"] ;
11 -> 12 ;
13 [label="mse = 0.0\nsamples = 2\nvalue = 9.0", fillcolor="#fefdfb"] ;
11 -> 13 ;
14 [label="4 <= 25.5\nmse = 51.18\nsamples = 40\nvalue = 25.35", fillcolor="#fef8f4"] ;
2 -> 14 ;
15 [label="4 <= 18.5\nmse = 16.63\nsamples = 21\nvalue = 19.57", fillcolor="#fefaf7"] ;
14 -> 15 ;
16 [label="4 <= 16.0\nmse = 2.86\nsamples = 8\nvalue = 14.88", fillcolor="#fefbf9"] ;
15 -> 16 ;
17 [label="4 <= 13.5\nmse = 0.67\nsamples = 6\nvalue = 14.0", fillcolor="#fefbf9"] ;
16 -> 17 ;
18 [label="mse = 0.0\nsamples = 2\nvalue = 13.0", fillcolor="#fefbf9"] ;
17 -> 18 ;
19 [label="mse = 0.25\nsamples = 4\nvalue = 14.5", fillcolor="#fefbf9"] ;
17 -> 19 ;
20 [label="4 <= 17.5\nmse = 0.25\nsamples = 2\nvalue = 17.5", fillcolor="#fefaf7"] ;
16 -> 20 ;
21 [label="mse = 0.0\nsamples = 1\nvalue = 17.0", fillcolor="#fefaf8"] ;
20 -> 21 ;
22 [label="mse = 0.0\nsamples = 1\nvalue = 18.0", fillcolor="#fefaf7"] ;
20 -> 22 ;
23 [label="4 <= 22.5\nmse = 3.17\nsamples = 13\nvalue = 22.46", fillcolor="#fef9f5"] ;
15 -> 23 ;
24 [label="7 <= 3.5\nmse = 0.86\nsamples = 7\nvalue = 21.0", fillcolor="#fef9f6"] ;
23 -> 24 ;
25 [label="mse = 0.0\nsamples = 1\nvalue = 19.0", fillcolor="#fefaf7"] ;
24 -> 25 ;
26 [label="mse = 0.22\nsamples = 6\nvalue = 21.33", fillcolor="#fef9f6"] ;
24 -> 26 ;
27 [label="4 <= 24.5\nmse = 0.47\nsamples = 6\nvalue = 24.17", fillcolor="#fef8f5"] ;
23 -> 27 ;
28 [label="mse = 0.19\nsamples = 4\nvalue = 23.75", fillcolor="#fef9f5"] ;
27 -> 28 ;
29 [label="mse = 0.0\nsamples = 2\nvalue = 25.0", fillcolor="#fef8f4"] ;
27 -> 29 ;
30 [label="4 <= 31.5\nmse = 11.67\nsamples = 19\nvalue = 31.74", fillcolor="#fdf6f1"] ;
14 -> 30 ;
31 [label="4 <= 28.5\nmse = 2.86\nsamples = 8\nvalue = 28.12", fillcolor="#fdf7f3"] ;
30 -> 31 ;
32 [label="0 <= 57.0\nmse = 0.8\nsamples = 5\nvalue = 27.0", fillcolor="#fdf8f3"] ;
31 -> 32 ;
33 [label="mse = 0.0\nsamples = 2\nvalue = 28.0", fillcolor="#fdf7f3"] ;
32 -> 33 ;
34 [label="mse = 0.22\nsamples = 3\nvalue = 26.33", fillcolor="#fef8f4"] ;
32 -> 34 ;
35 [label="4 <= 29.5\nmse = 0.67\nsamples = 3\nvalue = 30.0", fillcolor="#fdf7f2"] ;
31 -> 35 ;
36 [label="mse = 0.0\nsamples = 1\nvalue = 29.0", fillcolor="#fdf7f3"] ;
35 -> 36 ;
37 [label="mse = 0.25\nsamples = 2\nvalue = 30.5", fillcolor="#fdf7f2"] ;
35 -> 37 ;
38 [label="4 <= 34.5\nmse = 1.69\nsamples = 11\nvalue = 34.36", fillcolor="#fdf6f0"] ;
30 -> 38 ;
39 [label="4 <= 33.5\nmse = 0.56\nsamples = 6\nvalue = 33.33", fillcolor="#fdf6f1"] ;
38 -> 39 ;
40 [label="mse = 0.22\nsamples = 3\nvalue = 32.67", fillcolor="#fdf6f1"] ;
39 -> 40 ;
41 [label="mse = 0.0\nsamples = 3\nvalue = 34.0", fillcolor="#fdf6f0"] ;
39 -> 41 ;
42 [label="6 <= 2016.5\nmse = 0.24\nsamples = 5\nvalue = 35.6", fillcolor="#fdf5f0"] ;
38 -> 42 ;
43 [label="mse = 0.0\nsamples = 2\nvalue = 35.0", fillcolor="#fdf5f0"] ;
42 -> 43 ;
44 [label="mse = 0.0\nsamples = 3\nvalue = 36.0", fillcolor="#fdf5f0"] ;
42 -> 44 ;
45 [label="4 <= 73.5\nmse = 373.0\nsamples = 78\nvalue = 73.0", fillcolor="#fbebe0"] ;
1 -> 45 ;
46 [label="4 <= 58.0\nmse = 90.43\nsamples = 44\nvalue = 58.02", fillcolor="#fcefe6"] ;
45 -> 46 ;
47 [label="4 <= 47.0\nmse = 33.55\nsamples = 20\nvalue = 49.05", fillcolor="#fcf2ea"] ;
46 -> 47 ;
48 [label="4 <= 41.0\nmse = 10.92\nsamples = 6\nvalue = 41.5", fillcolor="#fdf4ed"] ;
47 -> 48 ;
49 [label="4 <= 38.5\nmse = 0.22\nsamples = 3\nvalue = 38.33", fillcolor="#fdf5ef"] ;
48 -> 49 ;
50 [label="mse = 0.0\nsamples = 2\nvalue = 38.0", fillcolor="#fdf5ef"] ;
49 -> 50 ;
51 [label="mse = 0.0\nsamples = 1\nvalue = 39.0", fillcolor="#fdf4ee"] ;
49 -> 51 ;
52 [label="1 <= 9312.0\nmse = 1.56\nsamples = 3\nvalue = 44.67", fillcolor="#fcf3ec"] ;
48 -> 52 ;
53 [label="mse = 0.25\nsamples = 2\nvalue = 45.5", fillcolor="#fcf3eb"] ;
52 -> 53 ;
54 [label="mse = 0.0\nsamples = 1\nvalue = 43.0", fillcolor="#fdf3ed"] ;
52 -> 54 ;
55 [label="4 <= 53.0\nmse = 8.35\nsamples = 14\nvalue = 52.29", fillcolor="#fcf1e9"] ;
47 -> 55 ;
56 [label="4 <= 50.5\nmse = 1.78\nsamples = 9\nvalue = 50.33", fillcolor="#fcf1e9"] ;
55 -> 56 ;
57 [label="mse = 0.5\nsamples = 4\nvalue = 49.0", fillcolor="#fcf2ea"] ;
56 -> 57 ;
58 [label="mse = 0.24\nsamples = 5\nvalue = 51.4", fillcolor="#fcf1e9"] ;
56 -> 58 ;
59 [label="0 <= 78.0\nmse = 0.96\nsamples = 5\nvalue = 55.8", fillcolor="#fcf0e7"] ;
55 -> 59 ;
60 [label="mse = 0.19\nsamples = 4\nvalue = 56.25", fillcolor="#fcf0e7"] ;
59 -> 60 ;
61 [label="mse = 0.0\nsamples = 1\nvalue = 54.0", fillcolor="#fcf0e8"] ;
59 -> 61 ;
62 [label="4 <= 65.5\nmse = 14.83\nsamples = 24\nvalue = 65.5", fillcolor="#fbede3"] ;
46 -> 62 ;
63 [label="4 <= 62.5\nmse = 2.58\nsamples = 12\nvalue = 61.92", fillcolor="#fceee4"] ;
62 -> 63 ;
64 [label="0 <= 82.5\nmse = 0.78\nsamples = 7\nvalue = 60.71", fillcolor="#fceee5"] ;
63 -> 64 ;
65 [label="mse = 0.16\nsamples = 5\nvalue = 61.2", fillcolor="#fceee5"] ;
64 -> 65 ;
66 [label="mse = 0.25\nsamples = 2\nvalue = 59.5", fillcolor="#fcefe5"] ;
64 -> 66 ;
67 [label="0 <= 59.5\nmse = 0.24\nsamples = 5\nvalue = 63.6", fillcolor="#fbeee4"] ;
63 -> 67 ;
68 [label="mse = 0.0\nsamples = 2\nvalue = 63.0", fillcolor="#fbeee4"] ;
67 -> 68 ;
69 [label="mse = 0.0\nsamples = 3\nvalue = 64.0", fillcolor="#fbeee4"] ;
67 -> 69 ;
70 [label="4 <= 69.5\nmse = 1.41\nsamples = 12\nvalue = 69.08", fillcolor="#fbece1"] ;
62 -> 70 ;
71 [label="4 <= 68.5\nmse = 0.48\nsamples = 8\nvalue = 68.38", fillcolor="#fbece2"] ;
70 -> 71 ;
72 [label="mse = 0.19\nsamples = 4\nvalue = 67.75", fillcolor="#fbece2"] ;
71 -> 72 ;
73 [label="mse = 0.0\nsamples = 4\nvalue = 69.0", fillcolor="#fbece1"] ;
71 -> 73 ;
74 [label="4 <= 70.5\nmse = 0.25\nsamples = 4\nvalue = 70.5", fillcolor="#fbece1"] ;
70 -> 74 ;
75 [label="mse = 0.0\nsamples = 2\nvalue = 70.0", fillcolor="#fbece1"] ;
74 -> 75 ;
76 [label="mse = 0.0\nsamples = 2\nvalue = 71.0", fillcolor="#fbece1"] ;
74 -> 76 ;
77 [label="4 <= 94.5\nmse = 72.71\nsamples = 34\nvalue = 92.38", fillcolor="#fae6d7"] ;
45 -> 77 ;
78 [label="4 <= 84.0\nmse = 33.41\nsamples = 22\nvalue = 87.36", fillcolor="#fae7d9"] ;
77 -> 78 ;
79 [label="4 <= 79.0\nmse = 3.56\nsamples = 6\nvalue = 78.67", fillcolor="#fbe9dd"] ;
78 -> 79 ;
80 [label="5 <= 1633.5\nmse = 0.75\nsamples = 4\nvalue = 77.5", fillcolor="#fbeade"] ;
79 -> 80 ;
81 [label="mse = 0.0\nsamples = 1\nvalue = 76.0", fillcolor="#fbeade"] ;
80 -> 81 ;
82 [label="mse = 0.0\nsamples = 3\nvalue = 78.0", fillcolor="#fbeadd"] ;
80 -> 82 ;
83 [label="9 <= 38.0\nmse = 1.0\nsamples = 2\nvalue = 81.0", fillcolor="#fae9dc"] ;
79 -> 83 ;
84 [label="mse = 0.0\nsamples = 1\nvalue = 80.0", fillcolor="#fae9dd"] ;
83 -> 84 ;
85 [label="mse = 0.0\nsamples = 1\nvalue = 82.0", fillcolor="#fae9dc"] ;
83 -> 85 ;
86 [label="4 <= 89.5\nmse = 5.61\nsamples = 16\nvalue = 90.62", fillcolor="#fae6d8"] ;
78 -> 86 ;
87 [label="4 <= 88.0\nmse = 1.19\nsamples = 4\nvalue = 87.25", fillcolor="#fae7da"] ;
86 -> 87 ;
88 [label="mse = 0.22\nsamples = 3\nvalue = 86.67", fillcolor="#fae7da"] ;
87 -> 88 ;
89 [label="mse = 0.0\nsamples = 1\nvalue = 89.0", fillcolor="#fae7d9"] ;
87 -> 89 ;
90 [label="4 <= 91.5\nmse = 2.02\nsamples = 12\nvalue = 91.75", fillcolor="#fae6d8"] ;
86 -> 90 ;
91 [label="mse = 0.25\nsamples = 6\nvalue = 90.5", fillcolor="#fae6d8"] ;
90 -> 91 ;
92 [label="mse = 0.67\nsamples = 6\nvalue = 93.0", fillcolor="#fae6d7"] ;
90 -> 92 ;
93 [label="4 <= 102.0\nmse = 13.91\nsamples = 12\nvalue = 101.58", fillcolor="#f9e3d3"] ;
77 -> 93 ;
94 [label="4 <= 97.0\nmse = 4.89\nsamples = 6\nvalue = 98.33", fillcolor="#f9e4d5"] ;
93 -> 94 ;
95 [label="6 <= 2017.0\nmse = 0.25\nsamples = 2\nvalue = 95.5", fillcolor="#fae5d6"] ;
94 -> 95 ;
96 [label="mse = 0.0\nsamples = 1\nvalue = 95.0", fillcolor="#fae5d6"] ;
95 -> 96 ;
97 [label="mse = 0.0\nsamples = 1\nvalue = 96.0", fillcolor="#fae5d6"] ;
95 -> 97 ;
98 [label="1 <= 9648.0\nmse = 1.19\nsamples = 4\nvalue = 99.75", fillcolor="#f9e4d4"] ;
94 -> 98 ;
99 [label="mse = 0.22\nsamples = 3\nvalue = 100.33", fillcolor="#f9e4d4"] ;
98 -> 99 ;
100 [label="mse = 0.0\nsamples = 1\nvalue = 98.0", fillcolor="#f9e4d5"] ;
98 -> 100 ;
101 [label="0 <= 79.0\nmse = 1.81\nsamples = 6\nvalue = 104.83", fillcolor="#f9e2d2"] ;
93 -> 101 ;
102 [label="0 <= 49.5\nmse = 0.5\nsamples = 4\nvalue = 104.0", fillcolor="#f9e3d2"] ;
101 -> 102 ;
103 [label="mse = 0.0\nsamples = 1\nvalue = 105.0", fillcolor="#f9e2d2"] ;
102 -> 103 ;
104 [label="mse = 0.22\nsamples = 3\nvalue = 103.67", fillcolor="#f9e3d2"] ;
102 -> 104 ;
105 [label="9 <= 33.5\nmse = 0.25\nsamples = 2\nvalue = 106.5", fillcolor="#f9e2d1"] ;
101 -> 105 ;
106 [label="mse = 0.0\nsamples = 1\nvalue = 106.0", fillcolor="#f9e2d1"] ;
105 -> 106 ;
107 [label="mse = 0.0\nsamples = 1\nvalue = 107.0", fillcolor="#f9e2d1"] ;
105 -> 107 ;
108 [label="4 <= 222.0\nmse = 6371.97\nsamples = 101\nvalue = 206.53", fillcolor="#f3c7a6"] ;
0 -> 108 [labeldistance=2.5, labelangle=-45, headlabel="False"] ;
109 [label="4 <= 159.5\nmse = 943.39\nsamples = 63\nvalue = 155.3", fillcolor="#f6d5bc"] ;
108 -> 109 ;
110 [label="4 <= 127.0\nmse = 231.73\nsamples = 35\nvalue = 131.6", fillcolor="#f8dbc6"] ;
109 -> 110 ;
111 [label="4 <= 114.5\nmse = 22.07\nsamples = 13\nvalue = 114.08", fillcolor="#f9e0ce"] ;
110 -> 111 ;
112 [label="4 <= 110.0\nmse = 3.35\nsamples = 7\nvalue = 110.29", fillcolor="#f9e1d0"] ;
111 -> 112 ;
113 [label="9 <= 19.5\nmse = 0.22\nsamples = 3\nvalue = 108.33", fillcolor="#f9e1d0"] ;
112 -> 113 ;
114 [label="mse = 0.0\nsamples = 2\nvalue = 108.0", fillcolor="#f9e1d1"] ;
113 -> 114 ;
115 [label="mse = 0.0\nsamples = 1\nvalue = 109.0", fillcolor="#f9e1d0"] ;
113 -> 115 ;
116 [label="4 <= 111.5\nmse = 0.69\nsamples = 4\nvalue = 111.75", fillcolor="#f9e0cf"] ;
112 -> 116 ;
117 [label="mse = 0.0\nsamples = 2\nvalue = 111.0", fillcolor="#f9e1cf"] ;
116 -> 117 ;
118 [label="mse = 0.25\nsamples = 2\nvalue = 112.5", fillcolor="#f9e0cf"] ;
116 -> 118 ;
119 [label="4 <= 118.5\nmse = 7.58\nsamples = 6\nvalue = 118.5", fillcolor="#f8dfcc"] ;
111 -> 119 ;
120 [label="7 <= 9.5\nmse = 0.19\nsamples = 4\nvalue = 116.75", fillcolor="#f8dfcd"] ;
119 -> 120 ;
121 [label="mse = 0.0\nsamples = 3\nvalue = 117.0", fillcolor="#f8dfcd"] ;
120 -> 121 ;
122 [label="mse = 0.0\nsamples = 1\nvalue = 116.0", fillcolor="#f8dfcd"] ;
120 -> 122 ;
123 [label="0 <= 72.0\nmse = 4.0\nsamples = 2\nvalue = 122.0", fillcolor="#f8decb"] ;
119 -> 123 ;
124 [label="mse = 0.0\nsamples = 1\nvalue = 124.0", fillcolor="#f8ddca"] ;
123 -> 124 ;
125 [label="mse = 0.0\nsamples = 1\nvalue = 120.0", fillcolor="#f8decb"] ;
123 -> 125 ;
126 [label="4 <= 144.5\nmse = 66.95\nsamples = 22\nvalue = 141.95", fillcolor="#f7d8c2"] ;
110 -> 126 ;
127 [label="4 <= 136.5\nmse = 21.09\nsamples = 15\nvalue = 137.2", fillcolor="#f7dac4"] ;
126 -> 127 ;
128 [label="4 <= 134.5\nmse = 3.56\nsamples = 6\nvalue = 132.33", fillcolor="#f8dbc6"] ;
127 -> 128 ;
129 [label="mse = 1.04\nsamples = 5\nvalue = 131.6", fillcolor="#f8dbc6"] ;
128 -> 129 ;
130 [label="mse = 0.0\nsamples = 1\nvalue = 136.0", fillcolor="#f7dac5"] ;
128 -> 130 ;
131 [label="4 <= 140.0\nmse = 6.47\nsamples = 9\nvalue = 140.44", fillcolor="#f7d9c3"] ;
127 -> 131 ;
132 [label="mse = 0.69\nsamples = 4\nvalue = 137.75", fillcolor="#f7d9c4"] ;
131 -> 132 ;
133 [label="mse = 0.64\nsamples = 5\nvalue = 142.6", fillcolor="#f7d8c2"] ;
131 -> 133 ;
134 [label="4 <= 153.0\nmse = 12.98\nsamples = 7\nvalue = 152.14", fillcolor="#f6d5be"] ;
126 -> 134 ;
135 [label="1 <= 9009.0\nmse = 5.25\nsamples = 4\nvalue = 149.5", fillcolor="#f7d6bf"] ;
134 -> 135 ;
136 [label="mse = 0.0\nsamples = 1\nvalue = 146.0", fillcolor="#f7d7c0"] ;
135 -> 136 ;
137 [label="mse = 1.56\nsamples = 3\nvalue = 150.67", fillcolor="#f7d6be"] ;
135 -> 137 ;
138 [label="1 <= 9195.0\nmse = 1.56\nsamples = 3\nvalue = 155.67", fillcolor="#f6d4bc"] ;
134 -> 138 ;
139 [label="mse = 0.0\nsamples = 1\nvalue = 154.0", fillcolor="#f6d5bd"] ;
138 -> 139 ;
140 [label="mse = 0.25\nsamples = 2\nvalue = 156.5", fillcolor="#f6d4bc"] ;
138 -> 140 ;
141 [label="4 <= 186.0\nmse = 252.99\nsamples = 28\nvalue = 184.93", fillcolor="#f5ccb0"] ;
109 -> 141 ;
142 [label="4 <= 173.0\nmse = 51.34\nsamples = 16\nvalue = 173.31", fillcolor="#f5d0b5"] ;
141 -> 142 ;
143 [label="4 <= 167.5\nmse = 12.2\nsamples = 7\nvalue = 166.29", fillcolor="#f6d2b8"] ;
142 -> 143 ;
144 [label="4 <= 163.0\nmse = 2.75\nsamples = 4\nvalue = 163.5", fillcolor="#f6d2b9"] ;
143 -> 144 ;
145 [label="mse = 0.0\nsamples = 2\nvalue = 162.0", fillcolor="#f6d3b9"] ;
144 -> 145 ;
146 [label="mse = 1.0\nsamples = 2\nvalue = 165.0", fillcolor="#f6d2b8"] ;
144 -> 146 ;
147 [label="1 <= 9510.0\nmse = 0.67\nsamples = 3\nvalue = 170.0", fillcolor="#f5d1b6"] ;
143 -> 147 ;
148 [label="mse = 0.0\nsamples = 1\nvalue = 169.0", fillcolor="#f5d1b6"] ;
147 -> 148 ;
149 [label="mse = 0.25\nsamples = 2\nvalue = 170.5", fillcolor="#f5d0b6"] ;
147 -> 149 ;
150 [label="4 <= 178.5\nmse = 13.51\nsamples = 9\nvalue = 178.78", fillcolor="#f5ceb2"] ;
142 -> 150 ;
151 [label="4 <= 175.5\nmse = 0.24\nsamples = 5\nvalue = 175.6", fillcolor="#f5cfb4"] ;
150 -> 151 ;
152 [label="mse = 0.0\nsamples = 2\nvalue = 175.0", fillcolor="#f5cfb4"] ;
151 -> 152 ;
153 [label="mse = 0.0\nsamples = 3\nvalue = 176.0", fillcolor="#f5cfb3"] ;
151 -> 153 ;
154 [label="4 <= 183.0\nmse = 1.69\nsamples = 4\nvalue = 182.75", fillcolor="#f5cdb1"] ;
150 -> 154 ;
155 [label="mse = 0.25\nsamples = 2\nvalue = 181.5", fillcolor="#f5cdb1"] ;
154 -> 155 ;
156 [label="mse = 0.0\nsamples = 2\nvalue = 184.0", fillcolor="#f5cdb0"] ;
154 -> 156 ;
157 [label="4 <= 204.5\nmse = 102.08\nsamples = 12\nvalue = 200.42", fillcolor="#f4c8a9"] ;
141 -> 157 ;
158 [label="8 <= 3.5\nmse = 23.61\nsamples = 8\nvalue = 194.12", fillcolor="#f4caac"] ;
157 -> 158 ;
159 [label="1 <= 10035.0\nmse = 4.24\nsamples = 5\nvalue = 190.6", fillcolor="#f4cbad"] ;
158 -> 159 ;
160 [label="mse = 2.0\nsamples = 3\nvalue = 192.0", fillcolor="#f4cbad"] ;
159 -> 160 ;
161 [label="mse = 0.25\nsamples = 2\nvalue = 188.5", fillcolor="#f4cbae"] ;
159 -> 161 ;
162 [label="1 <= 9465.0\nmse = 0.67\nsamples = 3\nvalue = 200.0", fillcolor="#f4c8a9"] ;
158 -> 162 ;
163 [label="mse = 0.0\nsamples = 1\nvalue = 201.0", fillcolor="#f4c8a9"] ;
162 -> 163 ;
164 [label="mse = 0.25\nsamples = 2\nvalue = 199.5", fillcolor="#f4c8a9"] ;
162 -> 164 ;
165 [label="4 <= 212.5\nmse = 21.5\nsamples = 4\nvalue = 213.0", fillcolor="#f3c5a4"] ;
157 -> 165 ;
166 [label="7 <= 6.5\nmse = 0.25\nsamples = 2\nvalue = 208.5", fillcolor="#f3c6a5"] ;
165 -> 166 ;
167 [label="mse = 0.0\nsamples = 1\nvalue = 209.0", fillcolor="#f3c6a5"] ;
166 -> 167 ;
168 [label="mse = 0.0\nsamples = 1\nvalue = 208.0", fillcolor="#f3c6a6"] ;
166 -> 168 ;
169 [label="9 <= 36.0\nmse = 2.25\nsamples = 2\nvalue = 217.5", fillcolor="#f3c4a2"] ;
165 -> 169 ;
170 [label="mse = 0.0\nsamples = 1\nvalue = 216.0", fillcolor="#f3c4a2"] ;
169 -> 170 ;
171 [label="mse = 0.0\nsamples = 1\nvalue = 219.0", fillcolor="#f3c3a1"] ;
169 -> 171 ;
172 [label="4 <= 346.0\nmse = 3805.67\nsamples = 38\nvalue = 291.47", fillcolor="#efaf82"] ;
108 -> 172 ;
173 [label="4 <= 272.0\nmse = 1082.62\nsamples = 33\nvalue = 271.27", fillcolor="#f0b58a"] ;
172 -> 173 ;
174 [label="4 <= 245.5\nmse = 207.88\nsamples = 17\nvalue = 244.0", fillcolor="#f1bc96"] ;
173 -> 174 ;
175 [label="4 <= 229.0\nmse = 30.44\nsamples = 9\nvalue = 232.0", fillcolor="#f2c09b"] ;
174 -> 175 ;
176 [label="0 <= 56.5\nmse = 0.89\nsamples = 3\nvalue = 225.67", fillcolor="#f2c19e"] ;
175 -> 176 ;
177 [label="mse = 0.0\nsamples = 1\nvalue = 227.0", fillcolor="#f2c19e"] ;
176 -> 177 ;
178 [label="mse = 0.0\nsamples = 2\nvalue = 225.0", fillcolor="#f2c29e"] ;
176 -> 178 ;
179 [label="9 <= 42.0\nmse = 15.14\nsamples = 6\nvalue = 235.17", fillcolor="#f2bf9a"] ;
175 -> 179 ;
180 [label="mse = 3.44\nsamples = 5\nvalue = 233.6", fillcolor="#f2bf9b"] ;
179 -> 180 ;
181 [label="mse = 0.0\nsamples = 1\nvalue = 243.0", fillcolor="#f1bd97"] ;
179 -> 181 ;
182 [label="4 <= 260.5\nmse = 63.25\nsamples = 8\nvalue = 257.5", fillcolor="#f0b990"] ;
174 -> 182 ;
183 [label="8 <= 1.5\nmse = 11.76\nsamples = 5\nvalue = 251.8", fillcolor="#f1ba93"] ;
182 -> 183 ;
184 [label="mse = 0.0\nsamples = 2\nvalue = 248.0", fillcolor="#f1bb94"] ;
183 -> 184 ;
185 [label="mse = 3.56\nsamples = 3\nvalue = 254.33", fillcolor="#f1b992"] ;
183 -> 185 ;
186 [label="0 <= 75.0\nmse = 4.67\nsamples = 3\nvalue = 267.0", fillcolor="#f0b68c"] ;
182 -> 186 ;
187 [label="mse = 0.25\nsamples = 2\nvalue = 268.5", fillcolor="#f0b68c"] ;
186 -> 187 ;
188 [label="mse = 0.0\nsamples = 1\nvalue = 264.0", fillcolor="#f0b78e"] ;
186 -> 188 ;
189 [label="4 <= 301.5\nmse = 382.06\nsamples = 16\nvalue = 300.25", fillcolor="#eead7e"] ;
173 -> 189 ;
190 [label="4 <= 288.5\nmse = 52.98\nsamples = 8\nvalue = 282.38", fillcolor="#efb286"] ;
189 -> 190 ;
191 [label="4 <= 280.0\nmse = 14.89\nsamples = 6\nvalue = 278.67", fillcolor="#efb387"] ;
190 -> 191 ;
192 [label="mse = 0.5\nsamples = 4\nvalue = 276.0", fillcolor="#efb488"] ;
191 -> 192 ;
193 [label="mse = 1.0\nsamples = 2\nvalue = 284.0", fillcolor="#efb185"] ;
191 -> 193 ;
194 [label="4 <= 293.5\nmse = 2.25\nsamples = 2\nvalue = 293.5", fillcolor="#eeaf81"] ;
190 -> 194 ;
195 [label="mse = 0.0\nsamples = 1\nvalue = 292.0", fillcolor="#efaf82"] ;
194 -> 195 ;
196 [label="mse = 0.0\nsamples = 1\nvalue = 295.0", fillcolor="#eeae80"] ;
194 -> 196 ;
197 [label="4 <= 324.5\nmse = 72.11\nsamples = 8\nvalue = 318.12", fillcolor="#eda876"] ;
189 -> 197 ;
198 [label="4 <= 315.0\nmse = 21.14\nsamples = 6\nvalue = 313.83", fillcolor="#eda978"] ;
197 -> 198 ;
199 [label="mse = 5.56\nsamples = 3\nvalue = 309.67", fillcolor="#eeaa7a"] ;
198 -> 199 ;
200 [label="mse = 2.0\nsamples = 3\nvalue = 318.0", fillcolor="#eda876"] ;
198 -> 200 ;
201 [label="5 <= 1784.5\nmse = 4.0\nsamples = 2\nvalue = 331.0", fillcolor="#eca571"] ;
197 -> 201 ;
202 [label="mse = 0.0\nsamples = 1\nvalue = 329.0", fillcolor="#eca572"] ;
201 -> 202 ;
203 [label="mse = 0.0\nsamples = 1\nvalue = 333.0", fillcolor="#eca470"] ;
201 -> 203 ;
204 [label="4 <= 389.5\nmse = 1308.56\nsamples = 5\nvalue = 424.8", fillcolor="#e78b49"] ;
172 -> 204 ;
205 [label="mse = 0.0\nsamples = 1\nvalue = 359.0", fillcolor="#eb9d65"] ;
204 -> 205 ;
206 [label="4 <= 442.0\nmse = 282.69\nsamples = 4\nvalue = 441.25", fillcolor="#e68641"] ;
204 -> 206 ;
207 [label="9 <= 26.5\nmse = 25.0\nsamples = 2\nvalue = 425.0", fillcolor="#e78b48"] ;
206 -> 207 ;
208 [label="mse = 0.0\nsamples = 1\nvalue = 420.0", fillcolor="#e78c4b"] ;
207 -> 208 ;
209 [label="mse = 0.0\nsamples = 1\nvalue = 430.0", fillcolor="#e78946"] ;
207 -> 209 ;
210 [label="6 <= 2017.0\nmse = 12.25\nsamples = 2\nvalue = 457.5", fillcolor="#e5823b"] ;
206 -> 210 ;
211 [label="mse = 0.0\nsamples = 1\nvalue = 461.0", fillcolor="#e58139"] ;
210 -> 211 ;
212 [label="mse = 0.0\nsamples = 1\nvalue = 454.0", fillcolor="#e5833c"] ;
210 -> 212 ;
}