digraph Tree {
node [shape=box, style="filled, rounded", color="black", fontname=helvetica] ;
edge [fontname=helvetica] ;
0 [label="4 <= 107.5\nmse = 4990.43\nsamples = 921\nvalue = 29.99", fillcolor="#fdf7f2"] ;
1 [label="4 <= 37.0\nmse = 508.65\nsamples = 820\nvalue = 8.25", fillcolor="#fffdfb"] ;
0 -> 1 [labeldistance=2.5, labelangle=45, headlabel="True"] ;
2 [label="4 <= 12.0\nmse = 35.85\nsamples = 742\nvalue = 1.44", fillcolor="#fffffe"] ;
1 -> 2 ;
3 [label="4 <= 3.0\nmse = 0.56\nsamples = 702\nvalue = 0.08", fillcolor="#ffffff"] ;
2 -> 3 ;
4 [label="4 <= 1.0\nmse = 0.02\nsamples = 694\nvalue = 0.01", fillcolor="#ffffff"] ;
3 -> 4 ;
5 [label="mse = 0.0\nsamples = 691\nvalue = 0.0", fillcolor="#ffffff"] ;
4 -> 5 ;
6 [label="mse = 0.0\nsamples = 3\nvalue = 2.0", fillcolor="#fffefe"] ;
4 -> 6 ;
7 [label="4 <= 7.5\nmse = 7.23\nsamples = 8\nvalue = 6.38", fillcolor="#fffdfc"] ;
3 -> 7 ;
8 [label="4 <= 5.0\nmse = 0.64\nsamples = 5\nvalue = 4.4", fillcolor="#fffefd"] ;
7 -> 8 ;
9 [label="mse = 0.0\nsamples = 4\nvalue = 4.0", fillcolor="#fffefd"] ;
8 -> 9 ;
10 [label="mse = 0.0\nsamples = 1\nvalue = 6.0", fillcolor="#fffdfc"] ;
8 -> 10 ;
11 [label="5 <= 1624.5\nmse = 0.89\nsamples = 3\nvalue = 9.67", fillcolor="#fefcfb"] ;
7 -> 11 ;
12 [label="mse = 0.0\nsamples = 1\nvalue = 11.0", fillcolor="#fefcfa"] ;
11 -> 12 ;
13 [label="mse = 0.0\nsamples = 2\nvalue = 9.0", fillcolor="#fefdfb"] ;
11 -> 13 ;
14 [label="4 <= 25.5\nmse = 51.18\nsamples = 40\nvalue = 25.35", fillcolor="#fef8f4"] ;
2 -> 14 ;
15 [label="4 <= 18.5\nmse = 16.63\nsamples = 21\nvalue = 19.57", fillcolor="#fefaf7"] ;
14 -> 15 ;
16 [label="4 <= 16.0\nmse = 2.86\nsamples = 8\nvalue = 14.88", fillcolor="#fefbf9"] ;
15 -> 16 ;
17 [label="4 <= 13.5\nmse = 0.67\nsamples = 6\nvalue = 14.0", fillcolor="#fefbf9"] ;
16 -> 17 ;
18 [label="mse = 0.0\nsamples = 2\nvalue = 13.0", fillcolor="#fefbf9"] ;
17 -> 18 ;
19 [label="4 <= 14.5\nmse = 0.25\nsamples = 4\nvalue = 14.5", fillcolor="#fefbf9"] ;
17 -> 19 ;
20 [label="mse = 0.0\nsamples = 2\nvalue = 14.0", fillcolor="#fefbf9"] ;
19 -> 20 ;
21 [label="mse = 0.0\nsamples = 2\nvalue = 15.0", fillcolor="#fefbf9"] ;
19 -> 21 ;
22 [label="0 <= 91.5\nmse = 0.25\nsamples = 2\nvalue = 17.5", fillcolor="#fefaf7"] ;
16 -> 22 ;
23 [label="mse = 0.0\nsamples = 1\nvalue = 18.0", fillcolor="#fefaf7"] ;
22 -> 23 ;
24 [label="mse = 0.0\nsamples = 1\nvalue = 17.0", fillcolor="#fefaf8"] ;
22 -> 24 ;
25 [label="4 <= 22.5\nmse = 3.17\nsamples = 13\nvalue = 22.46", fillcolor="#fef9f5"] ;
15 -> 25 ;
26 [label="7 <= 3.5\nmse = 0.86\nsamples = 7\nvalue = 21.0", fillcolor="#fef9f6"] ;
25 -> 26 ;
27 [label="mse = 0.0\nsamples = 1\nvalue = 19.0", fillcolor="#fefaf7"] ;
26 -> 27 ;
28 [label="2 <= 1750.0\nmse = 0.22\nsamples = 6\nvalue = 21.33", fillcolor="#fef9f6"] ;
26 -> 28 ;
29 [label="mse = 0.0\nsamples = 2\nvalue = 22.0", fillcolor="#fef9f6"] ;
28 -> 29 ;
30 [label="mse = 0.0\nsamples = 4\nvalue = 21.0", fillcolor="#fef9f6"] ;
28 -> 30 ;
31 [label="9 <= 40.0\nmse = 0.47\nsamples = 6\nvalue = 24.17", fillcolor="#fef8f5"] ;
25 -> 31 ;
32 [label="4 <= 23.5\nmse = 0.19\nsamples = 4\nvalue = 23.75", fillcolor="#fef9f5"] ;
31 -> 32 ;
33 [label="mse = 0.0\nsamples = 1\nvalue = 23.0", fillcolor="#fef9f5"] ;
32 -> 33 ;
34 [label="mse = 0.0\nsamples = 3\nvalue = 24.0", fillcolor="#fef8f5"] ;
32 -> 34 ;
35 [label="mse = 0.0\nsamples = 2\nvalue = 25.0", fillcolor="#fef8f4"] ;
31 -> 35 ;
36 [label="4 <= 31.5\nmse = 11.67\nsamples = 19\nvalue = 31.74", fillcolor="#fdf6f1"] ;
14 -> 36 ;
37 [label="4 <= 28.5\nmse = 2.86\nsamples = 8\nvalue = 28.12", fillcolor="#fdf7f3"] ;
36 -> 37 ;
38 [label="4 <= 26.5\nmse = 0.8\nsamples = 5\nvalue = 27.0", fillcolor="#fdf8f3"] ;
37 -> 38 ;
39 [label="mse = 0.0\nsamples = 2\nvalue = 26.0", fillcolor="#fef8f4"] ;
38 -> 39 ;
40 [label="5 <= 1743.0\nmse = 0.22\nsamples = 3\nvalue = 27.67", fillcolor="#fdf7f3"] ;
38 -> 40 ;
41 [label="mse = 0.0\nsamples = 1\nvalue = 27.0", fillcolor="#fdf8f3"] ;
40 -> 41 ;
42 [label="mse = 0.0\nsamples = 2\nvalue = 28.0", fillcolor="#fdf7f3"] ;
40 -> 42 ;
43 [label="4 <= 29.5\nmse = 0.67\nsamples = 3\nvalue = 30.0", fillcolor="#fdf7f2"] ;
37 -> 43 ;
44 [label="mse = 0.0\nsamples = 1\nvalue = 29.0", fillcolor="#fdf7f3"] ;
43 -> 44 ;
45 [label="7 <= 7.0\nmse = 0.25\nsamples = 2\nvalue = 30.5", fillcolor="#fdf7f2"] ;
43 -> 45 ;
46 [label="mse = 0.0\nsamples = 1\nvalue = 30.0", fillcolor="#fdf7f2"] ;
45 -> 46 ;
47 [label="mse = 0.0\nsamples = 1\nvalue = 31.0", fillcolor="#fdf7f2"] ;
45 -> 47 ;
48 [label="4 <= 34.5\nmse = 1.69\nsamples = 11\nvalue = 34.36", fillcolor="#fdf6f0"] ;
36 -> 48 ;
49 [label="4 <= 33.5\nmse = 0.56\nsamples = 6\nvalue = 33.33", fillcolor="#fdf6f1"] ;
48 -> 49 ;
50 [label="9 <= 17.0\nmse = 0.22\nsamples = 3\nvalue = 32.67", fillcolor="#fdf6f1"] ;
49 -> 50 ;
51 [label="mse = 0.0\nsamples = 1\nvalue = 32.0", fillcolor="#fdf6f1"] ;
50 -> 51 ;
52 [label="mse = 0.0\nsamples = 2\nvalue = 33.0", fillcolor="#fdf6f1"] ;
50 -> 52 ;
53 [label="mse = 0.0\nsamples = 3\nvalue = 34.0", fillcolor="#fdf6f0"] ;
49 -> 53 ;
54 [label="4 <= 35.5\nmse = 0.24\nsamples = 5\nvalue = 35.6", fillcolor="#fdf5f0"] ;
48 -> 54 ;
55 [label="mse = 0.0\nsamples = 2\nvalue = 35.0", fillcolor="#fdf5f0"] ;
54 -> 55 ;
56 [label="mse = 0.0\nsamples = 3\nvalue = 36.0", fillcolor="#fdf5f0"] ;
54 -> 56 ;
57 [label="4 <= 73.5\nmse = 373.0\nsamples = 78\nvalue = 73.0", fillcolor="#fbebe0"] ;
1 -> 57 ;
58 [label="4 <= 58.0\nmse = 90.43\nsamples = 44\nvalue = 58.02", fillcolor="#fcefe6"] ;
57 -> 58 ;
59 [label="4 <= 47.0\nmse = 33.55\nsamples = 20\nvalue = 49.05", fillcolor="#fcf2ea"] ;
58 -> 59 ;
60 [label="4 <= 41.0\nmse = 10.92\nsamples = 6\nvalue = 41.5", fillcolor="#fdf4ed"] ;
59 -> 60 ;
61 [label="4 <= 38.5\nmse = 0.22\nsamples = 3\nvalue = 38.33", fillcolor="#fdf5ef"] ;
60 -> 61 ;
62 [label="mse = 0.0\nsamples = 2\nvalue = 38.0", fillcolor="#fdf5ef"] ;
61 -> 62 ;
63 [label="mse = 0.0\nsamples = 1\nvalue = 39.0", fillcolor="#fdf4ee"] ;
61 -> 63 ;
64 [label="8 <= 4.5\nmse = 1.56\nsamples = 3\nvalue = 44.67", fillcolor="#fcf3ec"] ;
60 -> 64 ;
65 [label="2 <= 1850.0\nmse = 0.25\nsamples = 2\nvalue = 45.5", fillcolor="#fcf3eb"] ;
64 -> 65 ;
66 [label="mse = 0.0\nsamples = 1\nvalue = 45.0", fillcolor="#fcf3ec"] ;
65 -> 66 ;
67 [label="mse = 0.0\nsamples = 1\nvalue = 46.0", fillcolor="#fcf2eb"] ;
65 -> 67 ;
68 [label="mse = 0.0\nsamples = 1\nvalue = 43.0", fillcolor="#fdf3ed"] ;
64 -> 68 ;
69 [label="4 <= 53.0\nmse = 8.35\nsamples = 14\nvalue = 52.29", fillcolor="#fcf1e9"] ;
59 -> 69 ;
70 [label="4 <= 50.5\nmse = 1.78\nsamples = 9\nvalue = 50.33", fillcolor="#fcf1e9"] ;
69 -> 70 ;
71 [label="4 <= 48.5\nmse = 0.5\nsamples = 4\nvalue = 49.0", fillcolor="#fcf2ea"] ;
70 -> 71 ;
72 [label="mse = 0.0\nsamples = 1\nvalue = 48.0", fillcolor="#fcf2ea"] ;
71 -> 72 ;
73 [label="4 <= 49.5\nmse = 0.22\nsamples = 3\nvalue = 49.33", fillcolor="#fcf2ea"] ;
71 -> 73 ;
74 [label="mse = 0.0\nsamples = 2\nvalue = 49.0", fillcolor="#fcf2ea"] ;
73 -> 74 ;
75 [label="mse = 0.0\nsamples = 1\nvalue = 50.0", fillcolor="#fcf1ea"] ;
73 -> 75 ;
76 [label="7 <= 8.5\nmse = 0.24\nsamples = 5\nvalue = 51.4", fillcolor="#fcf1e9"] ;
70 -> 76 ;
77 [label="mse = 0.0\nsamples = 3\nvalue = 51.0", fillcolor="#fcf1e9"] ;
76 -> 77 ;
78 [label="mse = 0.0\nsamples = 2\nvalue = 52.0", fillcolor="#fcf1e9"] ;
76 -> 78 ;
79 [label="4 <= 55.0\nmse = 0.96\nsamples = 5\nvalue = 55.8", fillcolor="#fcf0e7"] ;
69 -> 79 ;
80 [label="mse = 0.0\nsamples = 1\nvalue = 54.0", fillcolor="#fcf0e8"] ;
79 -> 80 ;
81 [label="0 <= 48.5\nmse = 0.19\nsamples = 4\nvalue = 56.25", fillcolor="#fcf0e7"] ;
79 -> 81 ;
82 [label="mse = 0.0\nsamples = 1\nvalue = 57.0", fillcolor="#fcefe7"] ;
81 -> 82 ;
83 [label="mse = 0.0\nsamples = 3\nvalue = 56.0", fillcolor="#fcf0e7"] ;
81 -> 83 ;
84 [label="4 <= 65.5\nmse = 14.83\nsamples = 24\nvalue = 65.5", fillcolor="#fbede3"] ;
58 -> 84 ;
85 [label="4 <= 62.5\nmse = 2.58\nsamples = 12\nvalue = 61.92", fillcolor="#fceee4"] ;
84 -> 85 ;
86 [label="7 <= 8.5\nmse = 0.78\nsamples = 7\nvalue = 60.71", fillcolor="#fceee5"] ;
85 -> 86 ;
87 [label="0 <= 67.0\nmse = 0.16\nsamples = 5\nvalue = 61.2", fillcolor="#fceee5"] ;
86 -> 87 ;
88 [label="mse = 0.0\nsamples = 4\nvalue = 61.0", fillcolor="#fceee5"] ;
87 -> 88 ;
89 [label="mse = 0.0\nsamples = 1\nvalue = 62.0", fillcolor="#fceee4"] ;
87 -> 89 ;
90 [label="2 <= 1850.0\nmse = 0.25\nsamples = 2\nvalue = 59.5", fillcolor="#fcefe5"] ;
86 -> 90 ;
91 [label="mse = 0.0\nsamples = 1\nvalue = 60.0", fillcolor="#fcefe5"] ;
90 -> 91 ;
92 [label="mse = 0.0\nsamples = 1\nvalue = 59.0", fillcolor="#fcefe6"] ;
90 -> 92 ;
93 [label="4 <= 63.5\nmse = 0.24\nsamples = 5\nvalue = 63.6", fillcolor="#fbeee4"] ;
85 -> 93 ;
94 [label="mse = 0.0\nsamples = 2\nvalue = 63.0", fillcolor="#fbeee4"] ;
93 -> 94 ;
95 [label="mse = 0.0\nsamples = 3\nvalue = 64.0", fillcolor="#fbeee4"] ;
93 -> 95 ;
96 [label="4 <= 69.5\nmse = 1.41\nsamples = 12\nvalue = 69.08", fillcolor="#fbece1"] ;
84 -> 96 ;
97 [label="4 <= 68.5\nmse = 0.48\nsamples = 8\nvalue = 68.38", fillcolor="#fbece2"] ;
96 -> 97 ;
98 [label="4 <= 67.5\nmse = 0.19\nsamples = 4\nvalue = 67.75", fillcolor="#fbece2"] ;
97 -> 98 ;
99 [label="mse = 0.0\nsamples = 1\nvalue = 67.0", fillcolor="#fbede2"] ;
98 -> 99 ;
100 [label="mse = 0.0\nsamples = 3\nvalue = 68.0", fillcolor="#fbece2"] ;
98 -> 100 ;
101 [label="mse = 0.0\nsamples = 4\nvalue = 69.0", fillcolor="#fbece1"] ;
97 -> 101 ;
102 [label="9 <= 25.5\nmse = 0.25\nsamples = 4\nvalue = 70.5", fillcolor="#fbece1"] ;
96 -> 102 ;
103 [label="mse = 0.0\nsamples = 2\nvalue = 70.0", fillcolor="#fbece1"] ;
102 -> 103 ;
104 [label="mse = 0.0\nsamples = 2\nvalue = 71.0", fillcolor="#fbece1"] ;
102 -> 104 ;
105 [label="4 <= 94.5\nmse = 72.71\nsamples = 34\nvalue = 92.38", fillcolor="#fae6d7"] ;
57 -> 105 ;
106 [label="4 <= 84.0\nmse = 33.41\nsamples = 22\nvalue = 87.36", fillcolor="#fae7d9"] ;
105 -> 106 ;
107 [label="4 <= 79.0\nmse = 3.56\nsamples = 6\nvalue = 78.67", fillcolor="#fbe9dd"] ;
106 -> 107 ;
108 [label="5 <= 1633.5\nmse = 0.75\nsamples = 4\nvalue = 77.5", fillcolor="#fbeade"] ;
107 -> 108 ;
109 [label="mse = 0.0\nsamples = 1\nvalue = 76.0", fillcolor="#fbeade"] ;
108 -> 109 ;
110 [label="mse = 0.0\nsamples = 3\nvalue = 78.0", fillcolor="#fbeadd"] ;
108 -> 110 ;
111 [label="7 <= 9.0\nmse = 1.0\nsamples = 2\nvalue = 81.0", fillcolor="#fae9dc"] ;
107 -> 111 ;
112 [label="mse = 0.0\nsamples = 1\nvalue = 80.0", fillcolor="#fae9dd"] ;
111 -> 112 ;
113 [label="mse = 0.0\nsamples = 1\nvalue = 82.0", fillcolor="#fae9dc"] ;
111 -> 113 ;
114 [label="4 <= 89.5\nmse = 5.61\nsamples = 16\nvalue = 90.62", fillcolor="#fae6d8"] ;
106 -> 114 ;
115 [label="4 <= 88.0\nmse = 1.19\nsamples = 4\nvalue = 87.25", fillcolor="#fae7da"] ;
114 -> 115 ;
116 [label="4 <= 86.5\nmse = 0.22\nsamples = 3\nvalue = 86.67", fillcolor="#fae7da"] ;
115 -> 116 ;
117 [label="mse = 0.0\nsamples = 1\nvalue = 86.0", fillcolor="#fae7da"] ;
116 -> 117 ;
118 [label="mse = 0.0\nsamples = 2\nvalue = 87.0", fillcolor="#fae7da"] ;
116 -> 118 ;
119 [label="mse = 0.0\nsamples = 1\nvalue = 89.0", fillcolor="#fae7d9"] ;
115 -> 119 ;
120 [label="4 <= 91.5\nmse = 2.02\nsamples = 12\nvalue = 91.75", fillcolor="#fae6d8"] ;
114 -> 120 ;
121 [label="4 <= 90.5\nmse = 0.25\nsamples = 6\nvalue = 90.5", fillcolor="#fae6d8"] ;
120 -> 121 ;
122 [label="mse = 0.0\nsamples = 3\nvalue = 90.0", fillcolor="#fae6d8"] ;
121 -> 122 ;
123 [label="mse = 0.0\nsamples = 3\nvalue = 91.0", fillcolor="#fae6d8"] ;
121 -> 123 ;
124 [label="4 <= 92.5\nmse = 0.67\nsamples = 6\nvalue = 93.0", fillcolor="#fae6d7"] ;
120 -> 124 ;
125 [label="mse = 0.0\nsamples = 2\nvalue = 92.0", fillcolor="#fae6d7"] ;
124 -> 125 ;
126 [label="2 <= 1750.0\nmse = 0.25\nsamples = 4\nvalue = 93.5", fillcolor="#fae5d7"] ;
124 -> 126 ;
127 [label="mse = 0.0\nsamples = 2\nvalue = 93.0", fillcolor="#fae6d7"] ;
126 -> 127 ;
128 [label="mse = 0.0\nsamples = 2\nvalue = 94.0", fillcolor="#fae5d7"] ;
126 -> 128 ;
129 [label="4 <= 102.0\nmse = 13.91\nsamples = 12\nvalue = 101.58", fillcolor="#f9e3d3"] ;
105 -> 129 ;
130 [label="4 <= 97.0\nmse = 4.89\nsamples = 6\nvalue = 98.33", fillcolor="#f9e4d5"] ;
129 -> 130 ;
131 [label="6 <= 2017.0\nmse = 0.25\nsamples = 2\nvalue = 95.5", fillcolor="#fae5d6"] ;
130 -> 131 ;
132 [label="mse = 0.0\nsamples = 1\nvalue = 95.0", fillcolor="#fae5d6"] ;
131 -> 132 ;
133 [label="mse = 0.0\nsamples = 1\nvalue = 96.0", fillcolor="#fae5d6"] ;
131 -> 133 ;
134 [label="5 <= 1831.0\nmse = 1.19\nsamples = 4\nvalue = 99.75", fillcolor="#f9e4d4"] ;
130 -> 134 ;
135 [label="0 <= 67.0\nmse = 0.22\nsamples = 3\nvalue = 100.33", fillcolor="#f9e4d4"] ;
134 -> 135 ;
136 [label="mse = 0.0\nsamples = 1\nvalue = 101.0", fillcolor="#f9e3d4"] ;
135 -> 136 ;
137 [label="mse = 0.0\nsamples = 2\nvalue = 100.0", fillcolor="#f9e4d4"] ;
135 -> 137 ;
138 [label="mse = 0.0\nsamples = 1\nvalue = 98.0", fillcolor="#f9e4d5"] ;
134 -> 138 ;
139 [label="4 <= 105.5\nmse = 1.81\nsamples = 6\nvalue = 104.83", fillcolor="#f9e2d2"] ;
129 -> 139 ;
140 [label="5 <= 1750.5\nmse = 0.5\nsamples = 4\nvalue = 104.0", fillcolor="#f9e3d2"] ;
139 -> 140 ;
141 [label="8 <= 1.5\nmse = 0.22\nsamples = 3\nvalue = 103.67", fillcolor="#f9e3d2"] ;
140 -> 141 ;
142 [label="mse = 0.0\nsamples = 1\nvalue = 103.0", fillcolor="#f9e3d3"] ;
141 -> 142 ;
143 [label="mse = 0.0\nsamples = 2\nvalue = 104.0", fillcolor="#f9e3d2"] ;
141 -> 143 ;
144 [label="mse = 0.0\nsamples = 1\nvalue = 105.0", fillcolor="#f9e2d2"] ;
140 -> 144 ;
145 [label="4 <= 106.5\nmse = 0.25\nsamples = 2\nvalue = 106.5", fillcolor="#f9e2d1"] ;
139 -> 145 ;
146 [label="mse = 0.0\nsamples = 1\nvalue = 106.0", fillcolor="#f9e2d1"] ;
145 -> 146 ;
147 [label="mse = 0.0\nsamples = 1\nvalue = 107.0", fillcolor="#f9e2d1"] ;
145 -> 147 ;
148 [label="4 <= 222.0\nmse = 6371.97\nsamples = 101\nvalue = 206.53", fillcolor="#f3c7a6"] ;
0 -> 148 [labeldistance=2.5, labelangle=-45, headlabel="False"] ;
149 [label="4 <= 159.5\nmse = 943.39\nsamples = 63\nvalue = 155.3", fillcolor="#f6d5bc"] ;
148 -> 149 ;
150 [label="4 <= 127.0\nmse = 231.73\nsamples = 35\nvalue = 131.6", fillcolor="#f8dbc6"] ;
149 -> 150 ;
151 [label="4 <= 114.5\nmse = 22.07\nsamples = 13\nvalue = 114.08", fillcolor="#f9e0ce"] ;
150 -> 151 ;
152 [label="9 <= 21.5\nmse = 3.35\nsamples = 7\nvalue = 110.29", fillcolor="#f9e1d0"] ;
151 -> 152 ;
153 [label="9 <= 19.5\nmse = 0.22\nsamples = 3\nvalue = 108.33", fillcolor="#f9e1d0"] ;
152 -> 153 ;
154 [label="mse = 0.0\nsamples = 2\nvalue = 108.0", fillcolor="#f9e1d1"] ;
153 -> 154 ;
155 [label="mse = 0.0\nsamples = 1\nvalue = 109.0", fillcolor="#f9e1d0"] ;
153 -> 155 ;
156 [label="7 <= 7.5\nmse = 0.69\nsamples = 4\nvalue = 111.75", fillcolor="#f9e0cf"] ;
152 -> 156 ;
157 [label="mse = 0.0\nsamples = 2\nvalue = 111.0", fillcolor="#f9e1cf"] ;
156 -> 157 ;
158 [label="5 <= 1771.5\nmse = 0.25\nsamples = 2\nvalue = 112.5", fillcolor="#f9e0cf"] ;
156 -> 158 ;
159 [label="mse = 0.0\nsamples = 1\nvalue = 112.0", fillcolor="#f9e0cf"] ;
158 -> 159 ;
160 [label="mse = 0.0\nsamples = 1\nvalue = 113.0", fillcolor="#f9e0ce"] ;
158 -> 160 ;
161 [label="4 <= 118.5\nmse = 7.58\nsamples = 6\nvalue = 118.5", fillcolor="#f8dfcc"] ;
151 -> 161 ;
162 [label="4 <= 116.5\nmse = 0.19\nsamples = 4\nvalue = 116.75", fillcolor="#f8dfcd"] ;
161 -> 162 ;
163 [label="mse = 0.0\nsamples = 1\nvalue = 116.0", fillcolor="#f8dfcd"] ;
162 -> 163 ;
164 [label="mse = 0.0\nsamples = 3\nvalue = 117.0", fillcolor="#f8dfcd"] ;
162 -> 164 ;
165 [label="6 <= 2016.5\nmse = 4.0\nsamples = 2\nvalue = 122.0", fillcolor="#f8decb"] ;
161 -> 165 ;
166 [label="mse = 0.0\nsamples = 1\nvalue = 124.0", fillcolor="#f8ddca"] ;
165 -> 166 ;
167 [label="mse = 0.0\nsamples = 1\nvalue = 120.0", fillcolor="#f8decb"] ;
165 -> 167 ;
168 [label="4 <= 144.5\nmse = 66.95\nsamples = 22\nvalue = 141.95", fillcolor="#f7d8c2"] ;
150 -> 168 ;
169 [label="4 <= 136.5\nmse = 21.09\nsamples = 15\nvalue = 137.2", fillcolor="#f7dac4"] ;
168 -> 169 ;
170 [label="5 <= 1638.0\nmse = 3.56\nsamples = 6\nvalue = 132.33", fillcolor="#f8dbc6"] ;
169 -> 170 ;
171 [label="mse = 0.0\nsamples = 1\nvalue = 136.0", fillcolor="#f7dac5"] ;
170 -> 171 ;
172 [label="4 <= 131.5\nmse = 1.04\nsamples = 5\nvalue = 131.6", fillcolor="#f8dbc6"] ;
170 -> 172 ;
173 [label="7 <= 6.0\nmse = 0.25\nsamples = 2\nvalue = 130.5", fillcolor="#f8dbc7"] ;
172 -> 173 ;
174 [label="mse = 0.0\nsamples = 1\nvalue = 131.0", fillcolor="#f8dbc7"] ;
173 -> 174 ;
175 [label="mse = 0.0\nsamples = 1\nvalue = 130.0", fillcolor="#f8dbc7"] ;
173 -> 175 ;
176 [label="1 <= 9774.0\nmse = 0.22\nsamples = 3\nvalue = 132.33", fillcolor="#f8dbc6"] ;
172 -> 176 ;
177 [label="mse = 0.0\nsamples = 2\nvalue = 132.0", fillcolor="#f8dbc6"] ;
176 -> 177 ;
178 [label="mse = 0.0\nsamples = 1\nvalue = 133.0", fillcolor="#f7dbc6"] ;
176 -> 178 ;
179 [label="4 <= 140.0\nmse = 6.47\nsamples = 9\nvalue = 140.44", fillcolor="#f7d9c3"] ;
169 -> 179 ;
180 [label="1 <= 9390.0\nmse = 0.69\nsamples = 4\nvalue = 137.75", fillcolor="#f7d9c4"] ;
179 -> 180 ;
181 [label="mse = 0.0\nsamples = 2\nvalue = 137.0", fillcolor="#f7dac4"] ;
180 -> 181 ;
182 [label="5 <= 1787.0\nmse = 0.25\nsamples = 2\nvalue = 138.5", fillcolor="#f7d9c4"] ;
180 -> 182 ;
183 [label="mse = 0.0\nsamples = 1\nvalue = 139.0", fillcolor="#f7d9c3"] ;
182 -> 183 ;
184 [label="mse = 0.0\nsamples = 1\nvalue = 138.0", fillcolor="#f7d9c4"] ;
182 -> 184 ;
185 [label="1 <= 9783.0\nmse = 0.64\nsamples = 5\nvalue = 142.6", fillcolor="#f7d8c2"] ;
179 -> 185 ;
186 [label="mse = 0.0\nsamples = 4\nvalue = 143.0", fillcolor="#f7d8c2"] ;
185 -> 186 ;
187 [label="mse = 0.0\nsamples = 1\nvalue = 141.0", fillcolor="#f7d8c2"] ;
185 -> 187 ;
188 [label="4 <= 153.0\nmse = 12.98\nsamples = 7\nvalue = 152.14", fillcolor="#f6d5be"] ;
168 -> 188 ;
189 [label="1 <= 9009.0\nmse = 5.25\nsamples = 4\nvalue = 149.5", fillcolor="#f7d6bf"] ;
188 -> 189 ;
190 [label="mse = 0.0\nsamples = 1\nvalue = 146.0", fillcolor="#f7d7c0"] ;
189 -> 190 ;
191 [label="8 <= 5.0\nmse = 1.56\nsamples = 3\nvalue = 150.67", fillcolor="#f7d6be"] ;
189 -> 191 ;
192 [label="0 <= 57.0\nmse = 0.25\nsamples = 2\nvalue = 151.5", fillcolor="#f6d6be"] ;
191 -> 192 ;
193 [label="mse = 0.0\nsamples = 1\nvalue = 151.0", fillcolor="#f6d6be"] ;
192 -> 193 ;
194 [label="mse = 0.0\nsamples = 1\nvalue = 152.0", fillcolor="#f6d5be"] ;
192 -> 194 ;
195 [label="mse = 0.0\nsamples = 1\nvalue = 149.0", fillcolor="#f7d6bf"] ;
191 -> 195 ;
196 [label="4 <= 155.0\nmse = 1.56\nsamples = 3\nvalue = 155.67", fillcolor="#f6d4bc"] ;
188 -> 196 ;
197 [label="mse = 0.0\nsamples = 1\nvalue = 154.0", fillcolor="#f6d5bd"] ;
196 -> 197 ;
198 [label="6 <= 2017.5\nmse = 0.25\nsamples = 2\nvalue = 156.5", fillcolor="#f6d4bc"] ;
196 -> 198 ;
199 [label="mse = 0.0\nsamples = 1\nvalue = 156.0", fillcolor="#f6d4bc"] ;
198 -> 199 ;
200 [label="mse = 0.0\nsamples = 1\nvalue = 157.0", fillcolor="#f6d4bc"] ;
198 -> 200 ;
201 [label="4 <= 186.0\nmse = 252.99\nsamples = 28\nvalue = 184.93", fillcolor="#f5ccb0"] ;
149 -> 201 ;
202 [label="4 <= 173.0\nmse = 51.34\nsamples = 16\nvalue = 173.31", fillcolor="#f5d0b5"] ;
201 -> 202 ;
203 [label="4 <= 167.5\nmse = 12.2\nsamples = 7\nvalue = 166.29", fillcolor="#f6d2b8"] ;
202 -> 203 ;
204 [label="8 <= 1.0\nmse = 2.75\nsamples = 4\nvalue = 163.5", fillcolor="#f6d2b9"] ;
203 -> 204 ;
205 [label="mse = 0.0\nsamples = 2\nvalue = 162.0", fillcolor="#f6d3b9"] ;
204 -> 205 ;
206 [label="9 <= 34.0\nmse = 1.0\nsamples = 2\nvalue = 165.0", fillcolor="#f6d2b8"] ;
204 -> 206 ;
207 [label="mse = 0.0\nsamples = 1\nvalue = 166.0", fillcolor="#f6d2b8"] ;
206 -> 207 ;
208 [label="mse = 0.0\nsamples = 1\nvalue = 164.0", fillcolor="#f6d2b9"] ;
206 -> 208 ;
209 [label="6 <= 2017.0\nmse = 0.67\nsamples = 3\nvalue = 170.0", fillcolor="#f5d1b6"] ;
203 -> 209 ;
210 [label="mse = 0.0\nsamples = 1\nvalue = 169.0", fillcolor="#f5d1b6"] ;
209 -> 210 ;
211 [label="9 <= 25.0\nmse = 0.25\nsamples = 2\nvalue = 170.5", fillcolor="#f5d0b6"] ;
209 -> 211 ;
212 [label="mse = 0.0\nsamples = 1\nvalue = 170.0", fillcolor="#f5d1b6"] ;
211 -> 212 ;
213 [label="mse = 0.0\nsamples = 1\nvalue = 171.0", fillcolor="#f5d0b6"] ;
211 -> 213 ;
214 [label="4 <= 178.5\nmse = 13.51\nsamples = 9\nvalue = 178.78", fillcolor="#f5ceb2"] ;
202 -> 214 ;
215 [label="4 <= 175.5\nmse = 0.24\nsamples = 5\nvalue = 175.6", fillcolor="#f5cfb4"] ;
214 -> 215 ;
216 [label="mse = 0.0\nsamples = 2\nvalue = 175.0", fillcolor="#f5cfb4"] ;
215 -> 216 ;
217 [label="mse = 0.0\nsamples = 3\nvalue = 176.0", fillcolor="#f5cfb3"] ;
215 -> 217 ;
218 [label="4 <= 183.0\nmse = 1.69\nsamples = 4\nvalue = 182.75", fillcolor="#f5cdb1"] ;
214 -> 218 ;
219 [label="9 <= 27.0\nmse = 0.25\nsamples = 2\nvalue = 181.5", fillcolor="#f5cdb1"] ;
218 -> 219 ;
220 [label="mse = 0.0\nsamples = 1\nvalue = 181.0", fillcolor="#f5ceb1"] ;
219 -> 220 ;
221 [label="mse = 0.0\nsamples = 1\nvalue = 182.0", fillcolor="#f5cdb1"] ;
219 -> 221 ;
222 [label="mse = 0.0\nsamples = 2\nvalue = 184.0", fillcolor="#f5cdb0"] ;
218 -> 222 ;
223 [label="4 <= 204.5\nmse = 102.08\nsamples = 12\nvalue = 200.42", fillcolor="#f4c8a9"] ;
201 -> 223 ;
224 [label="4 <= 196.5\nmse = 23.61\nsamples = 8\nvalue = 194.12", fillcolor="#f4caac"] ;
223 -> 224 ;
225 [label="4 <= 190.0\nmse = 4.24\nsamples = 5\nvalue = 190.6", fillcolor="#f4cbad"] ;
224 -> 225 ;
226 [label="4 <= 188.5\nmse = 0.25\nsamples = 2\nvalue = 188.5", fillcolor="#f4cbae"] ;
225 -> 226 ;
227 [label="mse = 0.0\nsamples = 1\nvalue = 188.0", fillcolor="#f4ccae"] ;
226 -> 227 ;
228 [label="mse = 0.0\nsamples = 1\nvalue = 189.0", fillcolor="#f4cbae"] ;
226 -> 228 ;
229 [label="0 <= 57.0\nmse = 2.0\nsamples = 3\nvalue = 192.0", fillcolor="#f4cbad"] ;
225 -> 229 ;
230 [label="mse = 0.0\nsamples = 1\nvalue = 194.0", fillcolor="#f4caac"] ;
229 -> 230 ;
231 [label="mse = 0.0\nsamples = 2\nvalue = 191.0", fillcolor="#f4cbad"] ;
229 -> 231 ;
232 [label="1 <= 9465.0\nmse = 0.67\nsamples = 3\nvalue = 200.0", fillcolor="#f4c8a9"] ;
224 -> 232 ;
233 [label="mse = 0.0\nsamples = 1\nvalue = 201.0", fillcolor="#f4c8a9"] ;
232 -> 233 ;
234 [label="4 <= 199.5\nmse = 0.25\nsamples = 2\nvalue = 199.5", fillcolor="#f4c8a9"] ;
232 -> 234 ;
235 [label="mse = 0.0\nsamples = 1\nvalue = 199.0", fillcolor="#f4c9aa"] ;
234 -> 235 ;
236 [label="mse = 0.0\nsamples = 1\nvalue = 200.0", fillcolor="#f4c8a9"] ;
234 -> 236 ;
237 [label="4 <= 212.5\nmse = 21.5\nsamples = 4\nvalue = 213.0", fillcolor="#f3c5a4"] ;
223 -> 237 ;
238 [label="8 <= 1.5\nmse = 0.25\nsamples = 2\nvalue = 208.5", fillcolor="#f3c6a5"] ;
237 -> 238 ;
239 [label="mse = 0.0\nsamples = 1\nvalue = 208.0", fillcolor="#f3c6a6"] ;
238 -> 239 ;
240 [label="mse = 0.0\nsamples = 1\nvalue = 209.0", fillcolor="#f3c6a5"] ;
238 -> 240 ;
241 [label="4 <= 217.5\nmse = 2.25\nsamples = 2\nvalue = 217.5", fillcolor="#f3c4a2"] ;
237 -> 241 ;
242 [label="mse = 0.0\nsamples = 1\nvalue = 216.0", fillcolor="#f3c4a2"] ;
241 -> 242 ;
243 [label="mse = 0.0\nsamples = 1\nvalue = 219.0", fillcolor="#f3c3a1"] ;
241 -> 243 ;
244 [label="4 <= 346.0\nmse = 3805.67\nsamples = 38\nvalue = 291.47", fillcolor="#efaf82"] ;
148 -> 244 ;
245 [label="4 <= 272.0\nmse = 1082.62\nsamples = 33\nvalue = 271.27", fillcolor="#f0b58a"] ;
244 -> 245 ;
246 [label="4 <= 245.5\nmse = 207.88\nsamples = 17\nvalue = 244.0", fillcolor="#f1bc96"] ;
245 -> 246 ;
247 [label="4 <= 229.0\nmse = 30.44\nsamples = 9\nvalue = 232.0", fillcolor="#f2c09b"] ;
246 -> 247 ;
248 [label="4 <= 226.0\nmse = 0.89\nsamples = 3\nvalue = 225.67", fillcolor="#f2c19e"] ;
247 -> 248 ;
249 [label="mse = 0.0\nsamples = 2\nvalue = 225.0", fillcolor="#f2c29e"] ;
248 -> 249 ;
250 [label="mse = 0.0\nsamples = 1\nvalue = 227.0", fillcolor="#f2c19e"] ;
248 -> 250 ;
251 [label="7 <= 10.5\nmse = 15.14\nsamples = 6\nvalue = 235.17", fillcolor="#f2bf9a"] ;
247 -> 251 ;
252 [label="4 <= 233.0\nmse = 3.44\nsamples = 5\nvalue = 233.6", fillcolor="#f2bf9b"] ;
251 -> 252 ;
253 [label="8 <= 1.5\nmse = 0.25\nsamples = 2\nvalue = 231.5", fillcolor="#f2c09c"] ;
252 -> 253 ;
254 [label="mse = 0.0\nsamples = 1\nvalue = 232.0", fillcolor="#f2c09b"] ;
253 -> 254 ;
255 [label="mse = 0.0\nsamples = 1\nvalue = 231.0", fillcolor="#f2c09c"] ;
253 -> 255 ;
256 [label="0 <= 57.0\nmse = 0.67\nsamples = 3\nvalue = 235.0", fillcolor="#f2bf9a"] ;
252 -> 256 ;
257 [label="mse = 0.0\nsamples = 1\nvalue = 236.0", fillcolor="#f2be9a"] ;
256 -> 257 ;
258 [label="9 <= 27.0\nmse = 0.25\nsamples = 2\nvalue = 234.5", fillcolor="#f2bf9a"] ;
256 -> 258 ;
259 [label="mse = 0.0\nsamples = 1\nvalue = 234.0", fillcolor="#f2bf9a"] ;
258 -> 259 ;
260 [label="mse = 0.0\nsamples = 1\nvalue = 235.0", fillcolor="#f2bf9a"] ;
258 -> 260 ;
261 [label="mse = 0.0\nsamples = 1\nvalue = 243.0", fillcolor="#f1bd97"] ;
251 -> 261 ;
262 [label="4 <= 260.5\nmse = 63.25\nsamples = 8\nvalue = 257.5", fillcolor="#f0b990"] ;
246 -> 262 ;
263 [label="4 <= 250.5\nmse = 11.76\nsamples = 5\nvalue = 251.8", fillcolor="#f1ba93"] ;
262 -> 263 ;
264 [label="mse = 0.0\nsamples = 2\nvalue = 248.0", fillcolor="#f1bb94"] ;
263 -> 264 ;
265 [label="7 <= 9.0\nmse = 3.56\nsamples = 3\nvalue = 254.33", fillcolor="#f1b992"] ;
263 -> 265 ;
266 [label="mse = 0.0\nsamples = 2\nvalue = 253.0", fillcolor="#f1ba92"] ;
265 -> 266 ;
267 [label="mse = 0.0\nsamples = 1\nvalue = 257.0", fillcolor="#f1b991"] ;
265 -> 267 ;
268 [label="0 <= 75.0\nmse = 4.67\nsamples = 3\nvalue = 267.0", fillcolor="#f0b68c"] ;
262 -> 268 ;
269 [label="0 <= 61.5\nmse = 0.25\nsamples = 2\nvalue = 268.5", fillcolor="#f0b68c"] ;
268 -> 269 ;
270 [label="mse = 0.0\nsamples = 1\nvalue = 268.0", fillcolor="#f0b68c"] ;
269 -> 270 ;
271 [label="mse = 0.0\nsamples = 1\nvalue = 269.0", fillcolor="#f0b58b"] ;
269 -> 271 ;
272 [label="mse = 0.0\nsamples = 1\nvalue = 264.0", fillcolor="#f0b78e"] ;
268 -> 272 ;
273 [label="4 <= 301.5\nmse = 382.06\nsamples = 16\nvalue = 300.25", fillcolor="#eead7e"] ;
245 -> 273 ;
274 [label="4 <= 288.5\nmse = 52.98\nsamples = 8\nvalue = 282.38", fillcolor="#efb286"] ;
273 -> 274 ;
275 [label="4 <= 280.0\nmse = 14.89\nsamples = 6\nvalue = 278.67", fillcolor="#efb387"] ;
274 -> 275 ;
276 [label="7 <= 7.0\nmse = 0.5\nsamples = 4\nvalue = 276.0", fillcolor="#efb488"] ;
275 -> 276 ;
277 [label="2 <= 1850.0\nmse = 0.22\nsamples = 3\nvalue = 275.67", fillcolor="#efb489"] ;
276 -> 277 ;
278 [label="mse = 0.0\nsamples = 1\nvalue = 275.0", fillcolor="#efb489"] ;
277 -> 278 ;
279 [label="mse = 0.0\nsamples = 2\nvalue = 276.0", fillcolor="#efb488"] ;
277 -> 279 ;
280 [label="mse = 0.0\nsamples = 1\nvalue = 277.0", fillcolor="#efb388"] ;
276 -> 280 ;
281 [label="7 <= 7.5\nmse = 1.0\nsamples = 2\nvalue = 284.0", fillcolor="#efb185"] ;
275 -> 281 ;
282 [label="mse = 0.0\nsamples = 1\nvalue = 283.0", fillcolor="#efb285"] ;
281 -> 282 ;
283 [label="mse = 0.0\nsamples = 1\nvalue = 285.0", fillcolor="#efb185"] ;
281 -> 283 ;
284 [label="0 <= 65.5\nmse = 2.25\nsamples = 2\nvalue = 293.5", fillcolor="#eeaf81"] ;
274 -> 284 ;
285 [label="mse = 0.0\nsamples = 1\nvalue = 292.0", fillcolor="#efaf82"] ;
284 -> 285 ;
286 [label="mse = 0.0\nsamples = 1\nvalue = 295.0", fillcolor="#eeae80"] ;
284 -> 286 ;
287 [label="4 <= 324.5\nmse = 72.11\nsamples = 8\nvalue = 318.12", fillcolor="#eda876"] ;
273 -> 287 ;
288 [label="4 <= 315.0\nmse = 21.14\nsamples = 6\nvalue = 313.83", fillcolor="#eda978"] ;
287 -> 288 ;
289 [label="9 <= 29.5\nmse = 5.56\nsamples = 3\nvalue = 309.67", fillcolor="#eeaa7a"] ;
288 -> 289 ;
290 [label="mse = 0.0\nsamples = 2\nvalue = 308.0", fillcolor="#eeab7b"] ;
289 -> 290 ;
291 [label="mse = 0.0\nsamples = 1\nvalue = 313.0", fillcolor="#eda979"] ;
289 -> 291 ;
292 [label="2 <= 1800.0\nmse = 2.0\nsamples = 3\nvalue = 318.0", fillcolor="#eda876"] ;
288 -> 292 ;
293 [label="mse = 0.0\nsamples = 1\nvalue = 320.0", fillcolor="#eda876"] ;
292 -> 293 ;
294 [label="mse = 0.0\nsamples = 2\nvalue = 317.0", fillcolor="#eda877"] ;
292 -> 294 ;
295 [label="5 <= 1784.5\nmse = 4.0\nsamples = 2\nvalue = 331.0", fillcolor="#eca571"] ;
287 -> 295 ;
296 [label="mse = 0.0\nsamples = 1\nvalue = 329.0", fillcolor="#eca572"] ;
295 -> 296 ;
297 [label="mse = 0.0\nsamples = 1\nvalue = 333.0", fillcolor="#eca470"] ;
295 -> 297 ;
298 [label="4 <= 389.5\nmse = 1308.56\nsamples = 5\nvalue = 424.8", fillcolor="#e78b49"] ;
244 -> 298 ;
299 [label="mse = 0.0\nsamples = 1\nvalue = 359.0", fillcolor="#eb9d65"] ;
298 -> 299 ;
300 [label="8 <= 0.5\nmse = 282.69\nsamples = 4\nvalue = 441.25", fillcolor="#e68641"] ;
298 -> 300 ;
301 [label="7 <= 7.0\nmse = 12.25\nsamples = 2\nvalue = 457.5", fillcolor="#e5823b"] ;
300 -> 301 ;
302 [label="mse = 0.0\nsamples = 1\nvalue = 454.0", fillcolor="#e5833c"] ;
301 -> 302 ;
303 [label="mse = 0.0\nsamples = 1\nvalue = 461.0", fillcolor="#e58139"] ;
301 -> 303 ;
304 [label="5 <= 1697.5\nmse = 25.0\nsamples = 2\nvalue = 425.0", fillcolor="#e78b48"] ;
300 -> 304 ;
305 [label="mse = 0.0\nsamples = 1\nvalue = 430.0", fillcolor="#e78946"] ;
304 -> 305 ;
306 [label="mse = 0.0\nsamples = 1\nvalue = 420.0", fillcolor="#e78c4b"] ;
304 -> 306 ;
}